tree
version=v4
num_class=1
num_tree_per_iteration=1
label_index=0
max_feature_idx=21
objective=regression
feature_names=avg_min avg_pts usage_trend opp_def_rating home_away ast_rate def_rate pts_per_min rest_days recent_vs_season games_played reb_per_min l3_vs_l5_pts min_volatility starter_proxy cascade_signal opp_pts_allowed team_pace_proxy usage_share teammate_out_count game_total spread_abs
feature_infos=[9.6030303030303035:36.478709677419353] [3.0909090909090908:31.803571428571427] [0.90000000000000002:1.5] [9.9934521644234273:11.410107705053852] [0:1] [0.016172506738544475:0.29213804954890449] [0:0.1866466962382626] [0.1736588720770289:0.93221180197404485] [1:7] [0.5:2] [7:71] [0:1.1571178594668223] [0.53191489361702127:1.6666666666666665] [0.019221946385814825:1.2] [0:1] none [9.9934521644234273:11.410107705053852] [104.70815450643777:115.79087452471482] none none [209.41630901287553:231.58174904942965] none
tree_sizes=690 722 806 806 722 805 642 726 806 726 808 727 642 735 645 808 729 809 728 726 725 729 729 727 731 643 727 729 643 819 807 648 729 806 731 813 729 732 897 647 979 814 723 649 728 890 734 731 816 820 818 731 728 811 650 824 823 814 811 815 731 813 908 651 736 736 653 811 651 813 736 816 736 739 814 816 734 814 655 733 816 732 816 735 734 735 818 836 814 733 739 734 814 731 736 737 647 739 728 736 660 742 735 741 650 733 739 814 736 738 733 735 818 832 736 734 817 738 821 656 740 735 736 733 740 736 741 735 817 740 738 655 737 916 820 660 738 819 819 822 736 742 820 739 826 821 827 818 817 897 757 650 821 810 823 819 826 826 816 733 743 816 735 816 826 822 825 898 740 649 823 818 735 825 907 819 738 738 830 811 926 652 734 730 735 730 742 735 909 733 828 649 735 819 820 821 737 821 818 742 818 740 818 651 743 735 736 736 906 824 734 742 741 829 744 737 822 917 739 731 645 741 740 742 927 736 821 827 910 739 739 735 823 827 824 907 821 747 824 825 746 819 826 922 743 748 822 736 732 824 820 829 824 743 828 912 745 738 745 901 751 743 745 746 742 836 827 831 823 824 844 909 739 825 913 748 916 747 741 664 741 767 906 834 835 740 744 829 826 827 838 826 835 749 747 823 831 826 741 834 740 745 826 831 832 831 749 748 830 831 829 746 741 751 839 751 833 742 840 916 652 745 837 654 748 832 826 831 1044 832 750 822 830 831 830 967 834 742 746 951 906 916 917 831 828 748 831 743 743 832 749 666 735 746 1035 834 751 664 743 836 835 751 737 932 836 747 750 831 833 749 748 838 741 749 849 750 832 753 743 664 838 743 847 825 748 942 830 743 834 750 668 832 742 826 661 834 1038 752 828 749 831 733 747 747 828 947 749 850 748 913 833 743 955 744 751 822 657 917 747 832 662 748 747 742 834 749 745 750 833 753 912 746 753 748 872 750 832 834 752 831 828 833 746 918 823 748 833 661 747 750 747 741 911 747 751 754 828 835 750 831 833 748 748 831 830 746 835 749 747 833 747 746 831 747 832 749 832 660 750 750 834 742 748 741 830 748 828 838 829 827 830 754 744 830 747 746 745 746 746 745 825 749 833 747 831 747 835 823 832 743 663 747 922 751 837 829 746 838 751 831 833 750 747 741 829 832 831 737 748 920 750 836 751 751 744 748 836 838 935 748 833 746 752 830 748 747 743 829 751 741 745 751 846 835 836 747 753 834 746 828 835 1028 828 752 752 834 834 836 739 745 750 754 831 749 829 749 924 832 748 747 827 836 754 919 833 829 750 745 928 750 837 832 750 744 826 843 833 832 836 834 833 749 758 826 842 755 835 834 751 913 667 826 835 658 919 830 836 841 926 826 835 753 758 829 833 754 838 751 750 832 834 839 835 836 749 749 832 753 838 750 838 752 751 835 751 835 754 746 835 837 834 831 755 834 753 840 751 915 839 838 838 751 750 833 758 841 833 833 834 835 838 760 752 759 947 669 841 835 750 835 834 747 851 668 837 748 840 918 833 838 753 843 837 755 843 840 748 837 837 837 840 841 756 842 854 759 837 665 835 840 764 670 840 840 922 759 755 839 752 837 752 751 841 756 837 753 840 667 841 754 842 753 842 842 841 755 922 751 840 757 837 843 843 838 751 755 839 666 838 754 755 834 838 755 833 841 753 843 753 752 749 856 757 757 836 753 845 841 667 750 843 757 752 925 842 843 755 839 754 754 673 838 750 672 929 759 835 930 841 843 842 753 933 755 845 756 840 753 666 924 846 759 929 755 840 838 756 752 759 844 749 678 840 665 746 844 839 837 845 772 842 753 756 760 770 763 751 754 841 758 848 842 846 776 944 845 756 841 671 761 846 844 837 752 755 766 769 759 844 755 760 837 758 848 845 844 755 840 759 762 673 756 952 760 842 757 842 673 755 761 925 845 843 753 937 842 948 928 920 933 672 755 670 758 756 922 846 763 755 754 667 840 923 954 755 754 759 762 754 756

Tree=0
num_leaves=7
num_cat=0
split_feature=1 1 17 3 0 17
split_gain=451.875 133.775 49.2279 34.8236 25.557 3.10927
threshold=11.341641791044777 17.859677419354842 112.42358138780806 10.777293443879923 20.329216574730761 112.79538986909506
decision_type=2 2 2 2 2 2
left_child=3 2 -2 5 -5 -1
right_child=1 -3 -4 4 -6 -7
leaf_value=5.0637652948710157 5.1193867004892182 5.188810751996229 5.1616412586435434 5.0807991203332152 5.1165388226366408 5.0779774183652719
leaf_weight=44 79 113 59 43 57 33
leaf_count=30 31 27 21 29 27 19
internal_value=5.13037 5.16057 5.13745 5.08755 5.10117 5.06986
internal_weight=0 251 138 177 100 77
internal_count=184 79 52 105 56 49
is_linear=0
shrinkage=1


Tree=1
num_leaves=7
num_cat=0
split_feature=1 1 20 16 6 6
split_gain=420.797 124.575 45.8422 32.4286 31.6065 3.93068
threshold=11.341641791044777 17.859677419354842 224.84716277561611 10.777293443879923 0.066532241297487263 0.04783612728546812
decision_type=2 2 2 2 2 2
left_child=3 2 -2 5 -5 -1
right_child=1 -3 -4 4 -6 -7
leaf_value=-0.050388323465656297 -0.010602585678990886 0.056391625097763222 0.03017306363083801 -0.010739287100732329 -0.050379488244652749 -0.0662052867657099
leaf_weight=38 79 113 59 56 44 39
leaf_count=22 31 27 21 28 28 27
internal_value=0 0.0291429 0.00683048 -0.0413269 -0.028181 -0.0583995
internal_weight=0 251 138 177 100 77
internal_count=184 79 52 105 56 49
is_linear=0
shrinkage=0.035


Tree=2
num_leaves=8
num_cat=0
split_feature=1 1 17 10 17 3 10
split_gain=391.857 116.007 42.6894 31.1646 19.8901 12.6427 3.57456
threshold=11.341641791044777 17.859677419354842 112.42358138780806 34.500000000000007 112.03568843458152 10.777293443879923 51.500000000000007
decision_type=2 2 2 2 2 2 2
left_child=3 2 -2 -1 6 -6 -5
right_child=1 -3 -4 4 5 -7 -8
leaf_value=-0.013132547634403881 -0.010231495047860509 0.054417917760731904 0.029117006274666322 -0.070590186642877986 -0.048958833530181795 -0.020092845375047012 -0.053587870672345168
leaf_weight=41 79 113 59 33 41 34 28
leaf_count=21 31 27 21 21 23 20 20
internal_value=0 0.0281229 0.00659141 -0.0398805 -0.0479442 -0.0358729 -0.0627858
internal_weight=0 251 138 177 136 75 61
internal_count=184 79 52 105 84 43 41
is_linear=0
shrinkage=0.035


Tree=3
num_leaves=8
num_cat=0
split_feature=1 1 20 10 0 3 20
split_gain=364.907 108.029 39.7535 29.0213 21.4272 12.3044 1.87733
threshold=11.341641791044777 17.859677419354842 224.84716277561611 34.500000000000007 20.329216574730761 10.799983247031383 223.88527416043755
decision_type=2 2 2 2 2 2 2
left_child=3 2 -2 -1 6 -6 -5
right_child=1 -3 -4 4 5 -7 -8
leaf_value=-0.012672908727715657 -0.0098733927749238819 0.052513291717103103 0.028097911553488952 -0.066800562117029644 -0.046776779381892626 -0.017970470195252667 -0.054678682582131752
leaf_weight=41 79 113 59 34 39 34 29
leaf_count=21 31 27 21 22 21 20 21
internal_value=0 0.0271386 0.00636072 -0.0384846 -0.0462661 -0.0333601 -0.0612206
internal_weight=0 251 138 177 136 73 63
internal_count=184 79 52 105 84 41 43
is_linear=0
shrinkage=0.035


Tree=4
num_leaves=7
num_cat=0
split_feature=1 1 20 16 0 20
split_gain=339.81 100.599 37.0194 27.4658 21.6289 2.70282
threshold=11.341641791044777 17.859677419354842 224.84716277561611 10.777293443879923 20.329216574730761 225.59077973819012
decision_type=2 2 2 2 2 2
left_child=3 2 -2 5 -5 -1
right_child=1 -3 -4 4 -6 -7
leaf_value=-0.058528577414425943 -0.0095278240561108059 0.050675325181368178 0.027114484769181681 -0.04378022776786672 -0.01090159050687298 -0.045277889407042311
leaf_weight=44 79 113 59 43 57 33
leaf_count=30 31 27 21 29 27 19
internal_value=0 0.0261887 0.00613809 -0.0371377 -0.0250394 -0.0528497
internal_weight=0 251 138 177 100 77
internal_count=184 79 52 105 56 49
is_linear=0
shrinkage=0.035


Tree=5
num_leaves=8
num_cat=0
split_feature=1 1 17 10 0 11 17
split_gain=316.44 93.6804 34.4734 26.5172 18.9705 11.3851 1.72924
threshold=11.341641791044777 17.859677419354842 112.42358138780806 34.500000000000007 20.329216574730761 0.29761256704336209 111.94263708021877
decision_type=2 2 2 2 2 2 2
left_child=3 2 -2 -1 6 -6 -5
right_child=1 -3 -4 4 5 -7 -8
leaf_value=-0.011164817432077921 -0.009194350065309791 0.048901688473595856 0.02616547751035226 -0.062702504983719667 -0.043687026979401716 -0.015914823849770159 -0.051068531357008839
leaf_weight=41 79 113 59 34 40 33 29
leaf_count=21 31 27 21 22 20 21 21
internal_value=0 0.0252721 0.00592326 -0.0358379 -0.0432761 -0.0311325 -0.0573472
internal_weight=0 251 138 177 136 73 63
internal_count=184 79 52 105 84 41 43
is_linear=0
shrinkage=0.035


Tree=6
num_leaves=6
num_cat=0
split_feature=0 0 5 3 17
split_gain=270.38 80.4533 35.8031 20.0366 9.73362
threshold=30.155537507846834 23.348223662346296 0.12441658823492482 10.730761521597246 112.02225856919358
decision_type=2 2 2 2 2
left_child=1 2 4 -3 -1
right_child=-2 3 -4 -5 -6
leaf_value=-0.060652840354790301 0.041205474888582706 -0.019656722119876319 -0.010775313557436071 0.007489611097754768 -0.038693612111257575
leaf_weight=48 134 49 42 104 51
leaf_count=32 34 19 24 38 37
internal_value=0 -0.0187807 -0.037853 -0.00120431 -0.0493405
internal_weight=0 294 141 153 99
internal_count=184 150 93 57 69
is_linear=0
shrinkage=0.035


Tree=7
num_leaves=7
num_cat=0
split_feature=1 6 3 6 3 6
split_gain=279.562 86.8688 23.6348 25.2094 12.6522 3.25148
threshold=11.341641791044777 0.053175824427590952 10.777293443879923 0.066532241297487263 11.020067243238673 0.04783612728546812
decision_type=2 2 2 2 2 2
left_child=2 4 5 -4 -2 -1
right_child=1 -3 3 -5 -6 -7
leaf_value=-0.040973791154591668 -0.013271514596944711 0.040510073645866868 -0.0068851856701076034 -0.042287244720871316 0.011672365389605786 -0.055359456760761067
leaf_weight=38 53 151 56 44 47 39
leaf_count=22 27 37 28 28 15 27
internal_value=0 0.0237539 -0.0336849 -0.0224621 -0.00154789 -0.04826
internal_weight=0 251 177 100 100 77
internal_count=184 79 105 56 42 49
is_linear=0
shrinkage=0.035


Tree=8
num_leaves=8
num_cat=0
split_feature=1 1 17 10 0 11 16
split_gain=260.335 83.0314 29.8095 22.3622 16.2402 10.3762 1.84967
threshold=11.341641791044777 17.859677419354842 112.42358138780806 34.500000000000007 20.329216574730761 0.29761256704336209 10.829525086341315
decision_type=2 2 2 2 2 2 2
left_child=3 2 -2 -1 6 -6 -5
right_child=1 -3 -4 4 5 -7 -8
leaf_value=-0.009848254279392522 -0.0093512709693440912 0.045168568741909304 0.023529763980058294 -0.046991811484098436 -0.040086235638707883 -0.01357301002932769 -0.059060837253928189
leaf_weight=41 79 113 59 35 40 33 28
leaf_count=21 31 27 21 23 20 21 20
internal_value=0 0.0229225 0.00470656 -0.032506 -0.0393366 -0.0281008 -0.0523558
internal_weight=0 251 138 177 136 73 63
internal_count=184 79 52 105 84 41 43
is_linear=0
shrinkage=0.035


Tree=9
num_leaves=7
num_cat=0
split_feature=1 6 3 6 3 6
split_gain=242.431 79.7914 21.5535 22.8963 11.357 3.00885
threshold=11.341641791044777 0.053175824427590952 10.777293443879923 0.066532241297487263 11.020067243238673 0.04783612728546812
decision_type=2 2 2 2 2 2
left_child=2 4 5 -4 -2 -1
right_child=1 -3 3 -5 -6 -7
leaf_value=-0.038277717687581717 -0.013236352435119872 0.038179321245395199 -0.0058058276399970054 -0.03954470402053134 0.010396356895328203 -0.052116229614386202
leaf_weight=38 53 151 56 44 47 39
leaf_count=22 27 37 28 28 15 27
internal_value=0 0.0221202 -0.0313682 -0.0206509 -0.00212898 -0.0452868
internal_weight=0 251 177 100 100 77
internal_count=184 79 105 56 42 49
is_linear=0
shrinkage=0.035


Tree=10
num_leaves=8
num_cat=0
split_feature=1 1 5 10 0 11 3
split_gain=229.001 73.582 27.7837 20.188 14.8022 9.41918 1.92571
threshold=17.859677419354842 11.341641791044777 0.10128801828564857 34.500000000000007 20.329216574730761 0.29761256704336209 10.829525086341315
decision_type=2 2 2 2 2 2 2
left_child=1 3 -3 -1 6 -6 -5
right_child=-2 2 -4 4 5 -7 -8
leaf_value=-0.0087422515851695373 0.042744574592308668 -0.011431666582193174 0.019990518210983989 -0.043716769546270372 -0.037452953081112357 -0.012192040221257645 -0.056031378880143173
leaf_weight=41 113 71 67 35 40 33 28
leaf_count=21 27 29 23 23 20 21 20
internal_value=0 -0.0153338 0.00382403 -0.0302704 -0.0367604 -0.0260336 -0.0491899
internal_weight=0 315 138 177 136 73 63
internal_count=184 157 52 105 84 41 43
is_linear=0
shrinkage=0.035


Tree=11
num_leaves=7
num_cat=0
split_feature=1 1 17 3 5 17
split_gain=213.252 68.5214 26.1099 19.6745 20.401 2.30428
threshold=17.859677419354842 11.341641791044777 112.42358138780806 10.777293443879923 0.11190443520602252 112.79538986909506
decision_type=2 2 2 2 2 2
left_child=1 3 -3 5 -5 -1
right_child=-2 2 -4 4 -6 -7
leaf_value=-0.047752444293688648 0.041248513642797427 -0.0094663986464655851 0.021306639337691214 -0.029816027036046282 0.0040734485888970088 -0.035517617676294216
leaf_weight=44 113 79 59 68 32 33
leaf_count=30 27 31 21 38 18 19
internal_value=0 -0.0147971 0.00369019 -0.0292109 -0.0189714 -0.0425089
internal_weight=0 315 138 177 100 77
internal_count=184 157 52 105 56 49
is_linear=0
shrinkage=0.035


Tree=12
num_leaves=6
num_cat=0
split_feature=0 0 5 3 17
split_gain=195.07 52.6857 28.5813 16.7935 7.306
threshold=30.155537507846834 23.348223662346296 0.12441658823492482 10.730761521597246 112.02225856919358
decision_type=2 2 2 2 2
left_child=1 2 4 -3 -1
right_child=-2 3 -4 -5 -6
leaf_value=-0.051450513110806555 0.034999534447135321 -0.0186219062390072 -0.0071929719857871536 0.0062305528970542732 -0.032425730096395405
leaf_weight=48 134 49 42 104 51
leaf_count=32 34 19 24 38 37
internal_value=0 -0.0159522 -0.0313861 -0.00172873 -0.0416499
internal_weight=0 294 141 153 99
internal_count=184 150 93 57 69
is_linear=0
shrinkage=0.035


Tree=13
num_leaves=7
num_cat=0
split_feature=14 5 13 10 17 16
split_gain=135.343 65.7018 39.0855 15.9279 9.43204 3.98587
threshold=1.0000000180025095e-35 0.10128801828564857 0.1310518140423835 30.500000000000004 112.03568843458152 10.777293443879923
decision_type=2 2 2 2 2 2
left_child=2 -2 -1 -4 -5 -6
right_child=1 -3 3 4 5 -7
leaf_value=0.0067814792026864726 -0.0013232177051655746 0.036214735400862993 -0.009023644648492337 -0.047240227306006008 -0.035294586256146433 -0.018060559704374042
leaf_weight=47 109 120 35 51 35 31
leaf_count=17 37 34 17 35 23 21
internal_value=0 0.0183473 -0.0211133 -0.0297386 -0.0359354 -0.0271998
internal_weight=0 229 199 152 117 66
internal_count=184 71 113 96 79 44
is_linear=0
shrinkage=0.035


Tree=14
num_leaves=6
num_cat=0
split_feature=0 0 5 3 17
split_gain=172.565 45.6177 25.8343 15.634 6.38919
threshold=30.155537507846834 23.348223662346296 0.12441658823492482 10.730761521597246 112.02225856919358
decision_type=2 2 2 2 2
left_child=1 2 4 -3 -1
right_child=-2 3 -4 -5 -6
leaf_value=-0.048288414736744022 0.032918831050229164 -0.018068370372056962 -0.0063640636578202259 0.0059108073008918346 -0.030497308984289279
leaf_weight=48 134 49 42 104 51
leaf_count=32 34 19 24 38 37
internal_value=0 -0.0150038 -0.0293652 -0.0017688 -0.0391233
internal_weight=0 294 141 153 99
internal_count=184 150 93 57 69
is_linear=0
shrinkage=0.035


Tree=15
num_leaves=8
num_cat=0
split_feature=1 1 5 16 5 11 16
split_gain=172.443 52.5938 22.4271 15.9377 17.9084 5.52666 3.33945
threshold=17.859677419354842 11.341641791044777 0.10128801828564857 10.887499751091818 0.098553921919797671 0.37281309938991314 10.582845587310805
decision_type=2 2 2 2 2 2 2
left_child=1 3 -3 5 -5 6 -1
right_child=-2 2 -4 4 -6 -7 -8
leaf_value=-0.04694260676459569 0.037092440522613783 -0.010815867400715051 0.017415246408460525 -0.02736030585675811 0.0071114195805663874 -0.022088086418807509 -0.03157584317028523
leaf_weight=41 113 71 67 48 30 28 30
leaf_count=27 27 29 23 24 18 18 18
internal_value=0 -0.0133062 0.00289054 -0.0259341 -0.0141019 -0.0352565 -0.0404496
internal_weight=0 315 138 177 78 99 71
internal_count=184 157 52 105 42 63 45
is_linear=0
shrinkage=0.035


Tree=16
num_leaves=7
num_cat=0
split_feature=1 1 17 10 17 16
split_gain=160.584 48.9766 21.392 15.0918 11.4941 7.42915
threshold=17.859677419354842 11.341641791044777 112.42358138780806 34.500000000000007 111.94263708021877 10.777293443879923
decision_type=2 2 2 2 2 2
left_child=1 3 -3 -1 -5 -6
right_child=-2 2 -4 4 5 -7
leaf_value=-0.0064128843258793771 0.035794205218553546 -0.0091194026780468014 0.018735024628497788 -0.042985885723070667 -0.031499335442710184 -0.010101637797430158
leaf_weight=41 113 79 59 55 46 35
leaf_count=21 27 31 21 37 26 21
internal_value=0 -0.0128405 0.00278937 -0.0250264 -0.0306379 -0.0222534
internal_weight=0 315 138 177 136 81
internal_count=184 157 52 105 84 47
is_linear=0
shrinkage=0.035


Tree=17
num_leaves=8
num_cat=0
split_feature=7 13 17 6 3 10 9
split_gain=110.643 50.6006 35.8895 35.196 12.6758 8.39613 1.8915
threshold=0.70866220555925274 0.21787715434091551 109.73668085106384 0.059687729398122148 10.887499751091818 56.500000000000007 1.4062341220423413
decision_type=2 2 2 2 2 2 2
left_child=1 2 -1 5 6 -4 -3
right_child=-2 4 3 -5 -6 -7 -8
leaf_value=-0.021394089991396123 0.048382993679420623 -0.036199133889377122 0.0073578182639593781 0.027660516777625647 -0.010580543930289047 -0.013148449167755306 -0.025403001624526404
leaf_weight=55 51 50 47 83 58 51 33
leaf_count=25 13 28 21 27 30 21 19
internal_value=0 -0.00654518 0.00336608 0.0108899 -0.0231342 -0.00331381 -0.0319067
internal_weight=0 377 236 181 141 98 83
internal_count=184 171 94 69 77 42 47
is_linear=0
shrinkage=0.035


Tree=18
num_leaves=7
num_cat=0
split_feature=1 1 5 10 17 10
split_gain=143.027 43.8528 19.9717 13.9259 10.5042 6.62543
threshold=17.859677419354842 11.341641791044777 0.098553921919797671 34.500000000000007 111.94263708021877 54.500000000000007
decision_type=2 2 2 2 2 2
left_child=1 3 -3 -1 -5 -6
right_child=-2 2 -4 4 5 -7
leaf_value=-0.0057690122432825048 0.033780845783453077 -0.013440499780699612 0.013674753025832882 -0.040843776320191955 -0.0122927232839815 -0.032499852243810891
leaf_weight=41 113 56 82 55 46 35
leaf_count=21 27 28 24 37 22 25
internal_value=0 -0.0121182 0.00267146 -0.0236491 -0.0290395 -0.0210242
internal_weight=0 315 138 177 136 81
internal_count=184 157 52 105 84 47
is_linear=0
shrinkage=0.035


Tree=19
num_leaves=7
num_cat=0
split_feature=1 1 17 12 12 17
split_gain=133.19 40.8368 18.3621 14.6567 38.9556 5.63589
threshold=17.859677419354842 11.341641791044777 112.42358138780806 1.1423147420790787 1.0150007538067241 111.94263708021877
decision_type=2 2 2 2 2 2
left_child=1 3 -3 4 5 -1
right_child=-2 2 -4 -5 -6 -7
leaf_value=-0.041171322931107639 0.032598516527002894 -0.0084552567494632323 0.017351252666469349 -0.041460720039904121 0.008871041449475224 -0.02343872251885909
leaf_weight=37 113 79 59 40 46 54
leaf_count=25 27 31 21 26 22 32
internal_value=0 -0.0116941 0.00257796 -0.0228214 -0.0173793 -0.0306487
internal_weight=0 315 138 177 137 91
internal_count=184 157 52 105 79 57
is_linear=0
shrinkage=0.035


Tree=20
num_leaves=7
num_cat=0
split_feature=1 1 5 12 12 17
split_gain=124.03 38.0283 18.3695 13.7531 40.7698 5.24829
threshold=17.859677419354842 11.341641791044777 0.098553921919797671 1.1210082791247784 1.0150007538067241 111.94263708021877
decision_type=2 2 2 2 2 2
left_child=1 3 -3 4 5 -1
right_child=-2 2 -4 -5 -6 -7
leaf_value=-0.039730326307471843 0.031457568054309992 -0.012964471885934473 0.013040457059481614 -0.03898480231027035 0.012112691411748529 -0.022618367537442181
leaf_weight=37 113 56 82 44 42 54
leaf_count=25 27 28 24 30 18 32
internal_value=0 -0.0112848 0.00248773 -0.0220227 -0.0164111 -0.029576
internal_weight=0 315 138 177 133 91
internal_count=184 157 52 105 75 57
is_linear=0
shrinkage=0.035


Tree=21
num_leaves=7
num_cat=0
split_feature=0 1 9 5 11 0
split_gain=115.668 33.2245 13.4679 12.8136 11.2127 3.51786
threshold=30.155537507846834 11.489656978266565 0.97486737534494539 0.11988045685600025 0.42429585912114559 23.14704727769244
decision_type=2 2 2 2 2 2
left_child=1 3 -3 4 5 -1
right_child=-2 2 -4 -5 -6 -7
leaf_value=-0.039924765321341434 0.026950982528488474 0.017357061854140324 -0.0070341988523801172 -0.0051328109173725059 -0.012854973639530892 -0.025603485423523718
leaf_weight=55 134 44 75 42 44 34
leaf_count=39 34 18 29 26 22 16
internal_value=0 -0.0122838 0.00198442 -0.0219862 -0.0273083 -0.0344537
internal_weight=0 294 119 175 133 89
internal_count=184 150 47 103 77 55
is_linear=0
shrinkage=0.035


Tree=22
num_leaves=7
num_cat=0
split_feature=1 1 17 12 12 17
split_gain=109.945 32.5329 16.0963 12.7721 32.9366 4.69862
threshold=17.859677419354842 11.341641791044777 112.42358138780806 1.1423147420790787 1.0150007538067241 111.94263708021877
decision_type=2 2 2 2 2 2
left_child=1 3 -3 4 5 -1
right_child=-2 2 -4 -5 -6 -7
leaf_value=-0.037285482960979686 0.029617602453295113 -0.0082162318131120144 0.015945667381461522 -0.037956218153238304 0.0086610355944899114 -0.021094387796603976
leaf_weight=37 113 79 59 40 46 54
leaf_count=25 27 31 21 26 22 32
internal_value=0 -0.0106247 0.00211386 -0.0205565 -0.0154763 -0.0276776
internal_weight=0 315 138 177 137 91
internal_count=184 157 52 105 79 57
is_linear=0
shrinkage=0.035


Tree=23
num_leaves=7
num_cat=0
split_feature=1 1 5 12 12 20
split_gain=102.383 30.2954 16.7291 12.0412 34.5696 4.37547
threshold=17.859677419354842 11.341641791044777 0.098553921919797671 1.1210082791247784 1.0150007538067241 223.88527416043755
decision_type=2 2 2 2 2 2
left_child=1 3 -3 4 5 -1
right_child=-2 2 -4 -5 -6 -7
leaf_value=-0.035980492015746803 0.028580984332128967 -0.012706251339986921 0.012110392266079479 -0.035708412624556908 0.011679131050283712 -0.020356084022808963
leaf_weight=37 113 56 82 44 42 54
leaf_count=25 27 28 24 30 18 32
internal_value=0 -0.0102529 0.00203987 -0.019837 -0.0145863 -0.0267089
internal_weight=0 315 138 177 133 91
internal_count=184 157 52 105 75 57
is_linear=0
shrinkage=0.035


Tree=24
num_leaves=7
num_cat=0
split_feature=0 1 9 5 12 12
split_gain=96.0808 26.0548 12.2723 11.6135 9.05416 6.55201
threshold=30.155537507846834 11.489656978266565 0.97486737534494539 0.11988045685600025 1.1423147420790787 0.99248452696728573
decision_type=2 2 2 2 2 2
left_child=1 3 -3 4 5 -1
right_child=-2 2 -4 -5 -6 -7
leaf_value=-0.026205691021274437 0.024563248741767137 0.016114198625595735 -0.0071692448668181901 -0.0037427318907187631 -0.04107800080440939 -0.0074725798964500436
leaf_weight=66 134 44 75 42 32 35
leaf_count=38 34 18 29 26 20 19
internal_value=0 -0.0111955 0.00143976 -0.0197875 -0.0248542 -0.019714
internal_weight=0 294 119 175 133 101
internal_count=184 150 47 103 77 57
is_linear=0
shrinkage=0.035


Tree=25
num_leaves=6
num_cat=0
split_feature=1 5 9 0 10
split_gain=90.7681 26.6828 23.3946 11.8773 3.78909
threshold=17.859677419354842 0.098553921919797671 1.1427999092156034 23.348223662346296 51.500000000000007
decision_type=2 2 2 2 2
left_child=1 3 -3 4 -1
right_child=-2 2 -4 -5 -6
leaf_value=-0.038620937878731644 0.026910937089901582 0.01452917058200745 -0.013324483360203219 -0.010713278728608902 -0.022792394742030993
leaf_weight=32 113 77 71 91 44
leaf_count=24 27 29 35 39 30
internal_value=0 -0.00965376 0.00116694 -0.0192434 -0.029457
internal_weight=0 315 148 167 76
internal_count=184 157 64 93 54
is_linear=0
shrinkage=0.035


Tree=26
num_leaves=7
num_cat=0
split_feature=0 1 7 12 12 20
split_gain=84.6966 22.8049 15.4696 10.7641 29.7556 4.17432
threshold=30.155537507846834 11.489656978266565 0.47912470560655512 1.1210082791247784 1.0150007538067241 224.07137686916303
decision_type=2 2 2 2 2 2
left_child=1 3 -3 4 5 -1
right_child=-2 2 -4 -5 -6 -7
leaf_value=-0.033217936129165959 0.023062186379180252 0.015154682852120864 -0.010192343717011124 -0.033085884597638379 0.011707813466200607 -0.017940915178507568
leaf_weight=39 134 54 65 46 40 50
leaf_count=27 34 12 35 30 18 28
internal_value=0 -0.0105113 0.00130967 -0.0185496 -0.0133661 -0.0246353
internal_weight=0 294 119 175 129 89
internal_count=184 150 47 103 73 55
is_linear=0
shrinkage=0.035


Tree=27
num_leaves=7
num_cat=0
split_feature=0 0 5 3 12 11
split_gain=78.8716 19.6009 15.4931 12.5195 4.90587 4.02316
threshold=30.155537507846834 23.348223662346296 0.12441658823492482 10.730761521597246 1.1423147420790787 0.27763943617982773
decision_type=2 2 2 2 2 2
left_child=1 2 4 -3 5 -1
right_child=-2 3 -4 -5 -6 -7
leaf_value=-0.028551663486287002 0.022255010691040491 -0.016053862768624513 -0.0017450082985063396 0.0054043143369758937 -0.038653419315814973 -0.011033251642321166
leaf_weight=42 134 49 42 104 31 26
leaf_count=26 34 19 24 38 23 20
internal_value=0 -0.0101434 -0.0195573 -0.00146791 -0.027114 -0.0218534
internal_weight=0 294 141 153 99 68
internal_count=184 150 93 57 69 46
is_linear=0
shrinkage=0.035


Tree=28
num_leaves=6
num_cat=0
split_feature=1 5 2 0 3
split_gain=77.1262 23.5914 18.8811 8.73076 3.43449
threshold=17.859677419354842 0.098553921919797671 1.1423078193183196 23.348223662346296 10.829525086341315
decision_type=2 2 2 2 2
left_child=1 3 -3 4 -1
right_child=-2 2 -4 -5 -6
leaf_value=-0.020497262799077563 0.02480636086347884 0.010340438253659103 -0.015964756591939459 -0.010602358207106592 -0.035637008410788353
leaf_weight=45 113 97 51 91 31
leaf_count=33 27 35 29 39 21
internal_value=0 -0.00889879 0.00127581 -0.0179158 -0.0266727
internal_weight=0 315 148 167 76
internal_count=184 157 64 93 54
is_linear=0
shrinkage=0.035


Tree=29
num_leaves=8
num_cat=0
split_feature=7 5 5 11 2 14 17
split_gain=67.6928 27.7509 35.2757 15.217 14.8353 11.4874 4.82806
threshold=0.70866220555925274 0.098553921919797671 0.10878637542373688 0.20814405189227622 1.0780055453963702 1.0000000180025095e-35 111.14030870445346
decision_type=2 2 2 2 2 2 2
left_child=1 3 -3 6 -4 -5 -1
right_child=-2 2 4 5 -6 -7 -8
leaf_value=-0.036661293226129876 0.037844514341331001 0.024836913373932915 0.0050342393436728691 -0.016635016592720955 -0.019800217742459818 0.0052073481465103461 -0.018616831944173337
leaf_weight=34 51 67 61 65 57 54 39
leaf_count=22 13 13 27 39 31 16 23
internal_value=0 -0.00511955 0.00455432 -0.0144407 -0.00696207 -0.00672336 -0.0270211
internal_weight=0 377 185 192 118 119 73
internal_count=184 171 71 100 58 55 45
is_linear=0
shrinkage=0.035


Tree=30
num_leaves=8
num_cat=0
split_feature=1 3 12 17 12 11 3
split_gain=67.94 22.1342 23.0546 13.4133 17.2696 7.21186 6.0069
threshold=17.859677419354842 10.761510284902426 1.1210082791247784 112.27817136124763 1.0150007538067241 0.40117192399613627 10.582845587310805
decision_type=2 2 2 2 2 2 2
left_child=1 5 3 4 -3 6 -1
right_child=-2 2 -4 -5 -6 -7 -8
leaf_value=-0.032478377785195009 0.023282250809788178 -0.019812645566118406 -0.021296030033160662 0.019478714242577553 0.011399239150008986 -0.0062472604387298685 -0.013406371339224281
leaf_weight=55 113 39 51 56 49 33 32
leaf_count=37 27 25 31 16 17 13 18
internal_value=0 -0.00835205 -0.00107395 0.00608804 -0.0024333 -0.020179 -0.0254634
internal_weight=0 315 195 144 88 120 87
internal_count=184 157 89 58 42 68 55
is_linear=0
shrinkage=0.035


Tree=31
num_leaves=6
num_cat=0
split_feature=0 12 3 11 9
split_gain=63.3029 16.2529 20.4662 14.5819 13.4286
threshold=30.155537507846834 1.1625690870973895 10.730761521597246 0.34678030702327872 1.151456873648254
decision_type=2 2 2 2 2
left_child=1 2 3 -1 -4
right_child=-2 -3 4 -5 -6
leaf_value=-0.029470871808854021 0.019937898899470247 -0.025867516289285401 0.014320377943462092 -4.1673638801457307e-05 -0.0067745978254135017
leaf_weight=55 134 57 68 33 81
leaf_count=33 34 37 28 13 39
internal_value=0 -0.00908734 -0.0050516 -0.0184349 0.00285264
internal_weight=0 294 237 88 149
internal_count=184 150 113 46 67
is_linear=0
shrinkage=0.035


Tree=32
num_leaves=7
num_cat=0
split_feature=1 3 5 0 11 3
split_gain=60.5998 19.5968 21.2777 11.8504 6.36048 5.38301
threshold=17.859677419354842 10.761510284902426 0.10400591913164721 23.348223662346296 0.40117192399613627 10.582845587310805
decision_type=2 2 2 2 2 2
left_child=1 4 3 -3 5 -1
right_child=-2 2 -4 -5 -6 -7
leaf_value=-0.030619782597503881 0.021988610998785078 -0.027614669825982405 0.01157769725600446 -0.0030641081996693994 -0.0059328161380394848 -0.012565339194843548
leaf_weight=55 113 37 89 69 33 32
leaf_count=37 27 25 37 27 13 18
internal_value=0 -0.00788798 -0.00103975 -0.0116336 -0.0190163 -0.0239791
internal_weight=0 315 195 106 120 87
internal_count=184 157 89 52 68 55
is_linear=0
shrinkage=0.035


Tree=33
num_leaves=8
num_cat=0
split_feature=7 1 6 3 3 9 9
split_gain=56.9893 26.5747 34.4301 8.13657 6.7142 5.01812 3.06252
threshold=0.70866220555925274 11.341641791044777 0.059687729398122148 10.887499751091818 11.020067243238673 1.2571649747532507 1.2738841531211946
decision_type=2 2 2 2 2 2 2
left_child=1 3 4 6 -3 -5 -1
right_child=-2 2 -4 5 -6 -7 -8
leaf_value=-0.027979501227537791 0.034723882844635089 -0.020931764956887651 0.017719641665857776 0.0014812463518335589 -0.0022193554823752497 -0.016487702486867258 -0.015616559639262657
leaf_weight=45 51 46 106 45 48 33 54
leaf_count=33 13 26 24 21 16 21 30
internal_value=0 -0.0046974 0.00404446 -0.0145752 -0.0113765 -0.006121 -0.0212361
internal_weight=0 377 200 177 94 78 99
internal_count=184 171 66 105 42 42 63
is_linear=0
shrinkage=0.035


Tree=34
num_leaves=7
num_cat=0
split_feature=0 12 3 11 11 10
split_gain=53.7932 14.5389 17.5393 12.6182 8.53295 10.6273
threshold=30.155537507846834 1.1625690870973895 10.730761521597246 0.34678030702327872 0.080325455919997846 54.500000000000007
decision_type=2 2 2 2 2 2
left_child=1 2 3 -1 -4 -6
right_child=-2 -3 4 -5 5 -7
leaf_value=-0.02721542473543774 0.018379384604240979 -0.024247748353763636 0.024029073208570482 0.00016060736989884666 0.0071925667719340627 -0.013590562002597532
leaf_weight=55 134 57 20 33 81 48
leaf_count=33 34 37 4 13 39 24
internal_value=0 -0.008377 -0.00455998 -0.0169494 0.00275726 -0.00054069
internal_weight=0 294 237 88 149 129
internal_count=184 150 113 46 67 63
is_linear=0
shrinkage=0.035


Tree=35
num_leaves=8
num_cat=0
split_feature=7 1 6 6 16 16 2
split_gain=51.8465 23.1369 31.8049 7.77835 10.2759 6.05836 2.76109
threshold=0.70866220555925274 11.341641791044777 0.059687729398122148 0.077316824457027866 10.887499751091818 11.020067243238673 1.2707103162678379
decision_type=2 2 2 2 2 2 2
left_child=1 3 5 4 6 -3 -1
right_child=-2 2 -4 -5 -6 -7 -8
leaf_value=-0.024233837884038371 0.033120070923777188 -0.02022158350147631 0.016819898203841218 -0.029315517940558495 -0.00019723063626729732 -0.0024465711441977573 -0.010777522156675979
leaf_weight=47 51 46 106 32 67 48 31
leaf_count=29 13 26 24 22 33 16 21
internal_value=0 -0.00448043 0.0036764 -0.0136972 -0.0102504 -0.011145 -0.0188858
internal_weight=0 377 200 177 145 94 78
internal_count=184 171 66 105 83 42 50
is_linear=0
shrinkage=0.035


Tree=36
num_leaves=7
num_cat=0
split_feature=1 3 5 0 0 4
split_gain=48.354 15.8382 18.8239 10.0007 2.97925 2.49219
threshold=17.859677419354842 10.761510284902426 0.10400591913164721 23.348223662346296 26.07346153846154 1.0000000180025095e-35
decision_type=2 2 2 2 2 2
left_child=1 4 3 -3 5 -1
right_child=-2 2 -4 -5 -6 -7
leaf_value=-0.015729098412906754 0.019641673469965436 -0.02553472307183453 0.010978118296074315 -0.0029814398053871552 -0.010296238376613474 -0.028833569567650558
leaf_weight=40 113 37 89 69 48 32
leaf_count=28 27 25 37 27 18 22
internal_value=0 -0.00704606 -0.000889495 -0.0108538 -0.0170505 -0.0215533
internal_weight=0 315 195 106 120 72
internal_count=184 157 89 52 68 50
is_linear=0
shrinkage=0.035


Tree=37
num_leaves=7
num_cat=0
split_feature=7 1 12 12 12 12
split_gain=46.3396 20.1068 29.7835 7.55363 19.575 2.92287
threshold=0.70866220555925274 11.341641791044777 0.99768518518518523 1.1423147420790787 1.0150007538067241 0.85744598765432112
decision_type=2 2 2 2 2 2
left_child=1 3 -3 4 5 -1
right_child=-2 2 -4 -5 -6 -7
leaf_value=-0.011400265005394455 0.03131179223348405 0.019078328050234742 -0.0082436965705583939 -0.026208910681307318 0.0096870323772663657 -0.024007406402379278
leaf_weight=41 51 85 115 40 46 50
leaf_count=25 13 27 39 26 22 32
internal_value=0 -0.00423581 0.00336816 -0.0128279 -0.00892101 -0.0183273
internal_weight=0 377 200 177 137 91
internal_count=184 171 66 105 79 57
is_linear=0
shrinkage=0.035


Tree=38
num_leaves=9
num_cat=0
split_feature=7 5 5 11 2 14 17 10
split_gain=43.1526 19.2011 34.9 12.0282 10.5946 6.8579 4.83442 0.339889
threshold=0.70866220555925274 0.10128801828564857 0.11122316147331932 0.20814405189227622 1.0780055453963702 1.0000000180025095e-35 111.94263708021877 51.500000000000007
decision_type=2 2 2 2 2 2 2 2
left_child=1 3 -3 6 -4 7 -1 -5
right_child=-2 2 4 5 -6 -7 -8 -9
leaf_value=-0.029964231245739516 0.030215878302560135 0.028250717323906022 0.0042631527215065759 -0.01532615669509944 -0.017178328828378157 0.0028915140615857165 -0.012154553894969552 -0.010300485879997724
leaf_weight=43 51 53 58 34 55 69 33 32
leaf_count=27 13 13 26 20 29 17 19 20
internal_value=0 -0.00408756 0.00481773 -0.0110936 -0.00617297 -0.00482363 -0.0222311 -0.0128895
internal_weight=0 377 166 211 113 135 76 66
internal_count=184 171 68 103 55 57 46 40
is_linear=0
shrinkage=0.035


Tree=39
num_leaves=6
num_cat=0
split_feature=0 12 3 9 11
split_gain=41.7252 11.7228 13.7798 11.372 10.9191
threshold=30.155537507846834 1.1625690870973895 10.730761521597246 1.151456873648254 0.34678030702327872
decision_type=2 2 2 2 2
left_child=1 2 4 -4 -1
right_child=-2 -3 3 -5 -6
leaf_value=-0.024481752677397297 0.016187018820765748 -0.021628809020642129 0.013088652103153223 -0.0063239211320049241 0.00098446329208937556
leaf_weight=55 134 57 68 81 33
leaf_count=33 34 37 28 39 13
internal_value=0 -0.00737776 -0.00395029 0.00253551 -0.0149319
internal_weight=0 294 237 149 88
internal_count=184 150 113 67 46
is_linear=0
shrinkage=0.035


Tree=40
num_leaves=10
num_cat=0
split_feature=1 5 5 8 11 0 11 17 5
split_gain=39.1459 19.5619 59.9642 12.6641 10.3214 7.75377 5.3695 4.64165 3.54311
threshold=23.182750136686717 0.10128801828564857 0.10878637542373688 1.5000000000000002 0.20814405189227622 26.316552419354842 0.42429585912114559 111.94263708021877 0.14035686598543315
decision_type=2 2 2 2 2 2 2 2 2
left_child=1 4 -3 -4 7 6 -6 -1 -5
right_child=-2 2 3 8 5 -7 -8 -9 -10
leaf_value=-0.028723223432898525 0.029438170535223827 0.040239191183989699 0.0083428647026147062 -0.0083960592546841011 -0.021083864537862745 0.0043753439734379451 -0.0026935420678676791 -0.011272233752816012 -0.023132119393214967
leaf_weight=43 49 44 41 41 41 60 37 33 39
leaf_count=27 9 10 17 23 25 14 19 19 21
internal_value=0 -0.00380599 0.00524964 -0.00747383 -0.0107881 -0.0050839 -0.0123603 -0.0211458 -0.0155799
internal_weight=0 379 165 121 214 138 78 76 80
internal_count=184 175 71 61 104 58 44 46 44
is_linear=0
shrinkage=0.035


Tree=41
num_leaves=8
num_cat=0
split_feature=7 6 1 11 12 3 6
split_gain=37.2785 16.0725 36.793 9.93866 7.33144 6.77186 4.92241
threshold=0.70866220555925274 0.059687729398122148 13.268787878787881 0.20814405189227622 1.0150007538067241 10.887499751091818 0.038163207223512512
decision_type=2 2 2 2 2 2 2
left_child=1 3 4 6 -3 -5 -1
right_child=-2 2 -4 5 -6 -7 -8
leaf_value=-0.011546919360912096 0.028084113786325738 -0.01852535425887808 0.025490405112204535 -0.01278715046173012 -0.0011056942200983865 0.0076364253305418557 -0.026764837951682833
leaf_weight=60 51 46 62 37 83 43 46
leaf_count=32 13 26 14 25 31 19 24
internal_value=0 -0.00379918 0.00333228 -0.0111223 -0.00731736 -0.00180948 -0.0181509
internal_weight=0 377 191 186 129 80 106
internal_count=184 171 71 100 57 44 56
is_linear=0
shrinkage=0.035


Tree=42
num_leaves=7
num_cat=0
split_feature=1 3 5 20 9 9
split_gain=35.0373 19.0748 42.3881 12.2689 7.69365 5.3132
threshold=23.182750136686717 10.909164701638078 0.10128801828564857 224.84716277561611 1.3044303797468357 1.017245269016698
decision_type=2 2 2 2 2 2
left_child=1 3 -3 4 5 -1
right_child=-2 2 -4 -5 -6 -7
leaf_value=-0.013959580220757647 0.02785051958901542 -0.012200848401631954 0.029777839424399041 0.001668910403641757 -0.0070221381482464835 -0.031559664787430511
leaf_weight=47 49 61 57 89 87 38
leaf_count=25 9 33 25 37 33 22
internal_value=0 -0.00360073 0.00807699 -0.00888031 -0.0143389 -0.0218279
internal_weight=0 379 118 261 172 85
internal_count=184 175 58 117 80 47
is_linear=0
shrinkage=0.035


Tree=43
num_leaves=6
num_cat=0
split_feature=0 12 3 5 10
split_gain=34.3826 10.4421 11.2744 6.83187 6.74884
threshold=30.155537507846834 1.1938296445338701 10.730761521597246 0.10400591913164721 57.500000000000007
decision_type=2 2 2 2 2
left_child=1 2 4 -4 -1
right_child=-2 -3 3 -5 -6
leaf_value=-0.021841547079384328 0.014693881890722621 -0.020762842188606849 -0.0052104843063914977 0.0095816726174119769 -0.002206227291073348
leaf_weight=51 134 53 77 76 37
leaf_count=29 34 35 37 32 17
internal_value=0 -0.00669721 -0.00360394 0.00213725 -0.0135858
internal_weight=0 294 241 153 88
internal_count=184 150 115 69 46
is_linear=0
shrinkage=0.035


Tree=44
num_leaves=7
num_cat=0
split_feature=0 12 3 9 11 12
split_gain=32.0179 9.72396 10.499 10.0281 9.30154 6.74395
threshold=30.155537507846834 1.1938296445338701 10.730761521597246 1.1481584661395388 0.34678030702327872 0.99248452696728573
decision_type=2 2 2 2 2 2
left_child=1 2 4 -4 -1 -5
right_child=-2 -3 3 5 -6 -7
leaf_value=-0.021924420504026456 0.014179595850074471 -0.020036142627304458 0.012080594591851183 -0.01802634910844705 0.0015799409647782644 0.0020974558548015709
leaf_weight=55 134 53 68 34 33 51
leaf_count=33 34 35 28 20 13 21
internal_value=0 -0.00646281 -0.0034778 0.00206245 -0.0131103 -0.00595207
internal_weight=0 294 241 153 88 85
internal_count=184 150 115 69 46 41
is_linear=0
shrinkage=0.035


Tree=45
num_leaves=9
num_cat=0
split_feature=7 11 1 8 11 1 12 11
split_gain=32.1751 14.1255 26.5473 20.9481 11.8295 8.1462 4.70188 4.1262
threshold=0.70866220555925274 0.1906002359943513 15.553182917002419 1.5000000000000002 0.21356847921003211 7.3694444444444454 0.98562152133580716 0.42429585912114559
decision_type=2 2 2 2 2 2 2 2
left_child=1 3 4 -1 -3 -6 -5 -7
right_child=-2 2 -4 6 5 7 -8 -9
leaf_value=0.007326956014459333 0.02609107110430213 0.020378835290670399 0.022256087220177571 -0.014117877222597601 -0.02059832838546161 -0.0094128882040580113 -0.029698631909863174 0.0039890949224244878
leaf_weight=45 51 20 58 49 46 60 46 53
leaf_count=17 13 6 14 27 34 32 24 17
internal_value=0 -0.00352956 0.00167745 -0.0123443 -0.00499049 -0.0081816 -0.0216622 -0.003127
internal_weight=0 377 237 140 179 159 95 113
internal_count=184 171 103 68 89 83 51 49
is_linear=0
shrinkage=0.035


Tree=46
num_leaves=7
num_cat=0
split_feature=7 6 1 11 6 6
split_gain=29.9623 14.5615 29.5242 9.60613 6.41701 5.92479
threshold=0.70866220555925274 0.055012868214367745 13.268787878787881 0.20814405189227622 0.071527752174017786 0.038163207223512512
decision_type=2 2 2 2 2 2
left_child=1 3 4 5 -3 -1
right_child=-2 2 -4 -5 -6 -7
leaf_value=-0.010675914596921455 0.025177883976230435 0.0024891951937875637 0.022422457360304321 -0.0011031692526111865 -0.012808339148998643 -0.027815657831961292
leaf_weight=60 51 59 65 73 78 42
leaf_count=32 13 27 17 39 36 20
internal_value=0 -0.00340603 0.0029964 -0.0107963 -0.00622035 -0.0177335
internal_weight=0 377 202 175 137 102
internal_count=184 171 80 91 63 52
is_linear=0
shrinkage=0.035


Tree=47
num_leaves=7
num_cat=0
split_feature=1 3 5 17 11 17
split_gain=28.2139 17.5775 38.0654 10.8162 12.7601 7.07828
threshold=23.182750136686717 10.909164701638078 0.10128801828564857 112.42358138780806 0.33534606156744068 109.73668085106384
decision_type=2 2 2 2 2 2
left_child=1 3 -3 4 5 -1
right_child=-2 2 -4 -5 -6 -7
leaf_value=-0.033744053911779912 0.024991880910737174 -0.011237188108937174 0.028543466202130444 0.0016057097819748892 -0.0017772501599097599 -0.014501542656425276
leaf_weight=36 49 61 57 89 69 67
leaf_count=24 9 33 25 37 21 35
internal_value=0 -0.00323114 0.00797889 -0.00829928 -0.0134245 -0.0212271
internal_weight=0 379 118 261 172 103
internal_count=184 175 58 117 80 59
is_linear=0
shrinkage=0.035


Tree=48
num_leaves=8
num_cat=0
split_feature=6 0 2 11 13 13 11
split_gain=27.5275 62.5229 9.63749 8.00663 8.58308 6.87188 6.78731
threshold=0.053175824427590952 30.155537507846834 1.0470821319903485 0.20814405189227622 0.18516605391010579 0.20251743032072914 0.2632420052967881
decision_type=2 2 2 2 2 2 2
left_child=3 2 -2 4 -1 -5 -4
right_child=1 -3 6 5 -6 -7 -8
leaf_value=-0.025129058221813109 -0.016574986763815913 0.033542485746244591 0.011752430036178103 0.0059602328438311822 -0.0042670830336865037 -0.014810542598133908 -0.0057073864707751073
leaf_weight=61 54 78 46 50 40 32 67
leaf_count=29 28 18 20 20 22 22 25
internal_value=0 0.00767135 -0.00441217 -0.0102704 -0.0168669 -0.00214544 0.00140015
internal_weight=0 245 167 183 101 82 113
internal_count=184 91 73 93 51 42 45
is_linear=0
shrinkage=0.035


Tree=49
num_leaves=8
num_cat=0
split_feature=6 1 11 5 11 4 6
split_gain=25.6343 57.0509 8.55115 8.27957 7.81096 5.62535 1.88922
threshold=0.053175824427590952 18.140365448504987 0.21508957099390338 0.10400591913164721 0.3902563140902004 1.0000000180025095e-35 0.031435764662616029
decision_type=2 2 2 2 2 2 2
left_child=3 2 -2 5 -4 -1 -5
right_child=1 -3 4 6 -6 -7 -8
leaf_value=-0.0078130842437562735 0.0064729004893969338 0.035217316194691449 -0.020664727947739672 0.0042321084018072325 -0.001376699130050838 -0.02454106856629534 -0.0063745221930245569
leaf_weight=46 72 66 43 36 64 53 48
leaf_count=26 28 14 25 16 24 27 24
internal_value=0 0.00740286 -0.00285276 -0.00991093 -0.00912796 -0.0167685 -0.00182882
internal_weight=0 245 179 183 107 99 84
internal_count=184 91 77 93 49 53 40
is_linear=0
shrinkage=0.035


Tree=50
num_leaves=8
num_cat=0
split_feature=6 0 2 11 9 13 13
split_gain=23.9627 54.0607 9.31112 9.07285 8.92145 8.24767 7.94902
threshold=0.059687729398122148 30.155537507846834 1.0470821319903485 0.20814405189227622 1.2786012569254941 0.18516605391010579 0.19356354294219194
decision_type=2 2 2 2 2 2 2
left_child=3 2 -2 5 -4 -1 -5
right_child=1 -3 4 6 -6 -7 -8
leaf_value=-0.023891411721706394 -0.016851946847869996 0.032853732351213694 0.012849029536758151 0.0075167997705284512 -0.0073566535528812376 -0.0041431410864143725 -0.013222917457552334
leaf_weight=63 47 72 49 56 59 44 38
leaf_count=31 23 16 15 22 25 26 26
internal_value=0 0.00779289 -0.00384827 -0.00880093 0.00181074 -0.0157706 -0.000867341
internal_weight=0 227 155 201 108 107 94
internal_count=184 79 63 105 40 57 48
is_linear=0
shrinkage=0.035


Tree=51
num_leaves=7
num_cat=0
split_feature=1 3 5 20 11 20
split_gain=22.5167 17.2033 33.771 8.98547 11.3321 6.07057
threshold=23.182750136686717 10.909164701638078 0.10128801828564857 224.84716277561611 0.33534606156744068 219.47336170212768
decision_type=2 2 2 2 2 2
left_child=1 3 -3 4 5 -1
right_child=-2 2 -4 -5 -6 -7
leaf_value=-0.031516643553817024 0.022326468144144334 -0.0098961934604544638 0.027573390910728721 0.0011274801309121083 -0.0015956184500153514 -0.013696438968737625
leaf_weight=36 49 61 57 89 69 67
leaf_count=24 9 33 25 37 21 35
internal_value=0 -0.00288654 0.00820352 -0.00790043 -0.0125719 -0.0199249
internal_weight=0 379 118 261 172 103
internal_count=184 175 58 117 80 59
is_linear=0
shrinkage=0.035


Tree=52
num_leaves=7
num_cat=0
split_feature=0 11 10 2 2 0
split_gain=21.4727 61.6108 6.06492 5.89441 5.7799 6.069
threshold=29.326424806201555 0.19578898793497571 65.500000000000014 0.96730428108786815 1.0965840409471252 20.060833333333335
decision_type=2 2 2 2 2 2
left_child=2 -2 3 -1 -5 -6
right_child=1 -3 -4 4 5 -7
leaf_value=-0.020415273241815159 -0.015445458920051657 0.028972000694618777 0.0062591473789264766 0.0022645246170126688 -0.018869000579145822 -0.002957322423656782
leaf_weight=40 66 91 42 71 55 63
leaf_count=28 22 21 8 31 37 37
internal_value=0 0.0102997 -0.00596698 -0.00820933 -0.00562606 -0.0103738
internal_weight=0 157 271 229 189 118
internal_count=184 43 141 133 105 74
is_linear=0
shrinkage=0.035


Tree=53
num_leaves=8
num_cat=0
split_feature=6 0 2 9 9 3 17
split_gain=21.8863 47.2526 8.4111 7.83062 5.50268 5.51792 2.94576
threshold=0.059687729398122148 30.155537507846834 1.0470821319903485 1.2786012569254941 0.95011837943580102 10.909164701638078 112.02225856919358
decision_type=2 2 2 2 2 2 2
left_child=4 2 -2 -4 -1 6 -6
right_child=1 -3 3 -5 5 -7 -8
leaf_value=-0.017288497209781782 -0.01579511515082831 0.030877358214412301 0.01228413930961064 -0.0066459998788343652 -0.016365217754448005 0.0044248292140232834 -0.0036293311847580808
leaf_weight=60 47 72 49 59 44 52 45
leaf_count=32 23 16 15 25 26 24 23
internal_value=0 0.00744761 -0.00343588 0.00194267 -0.00841099 -0.00463332 -0.00992572
internal_weight=0 227 155 108 201 141 89
internal_count=184 79 63 40 105 73 49
is_linear=0
shrinkage=0.035


Tree=54
num_leaves=6
num_cat=0
split_feature=5 3 11 17 17
split_gain=19.988 24.1804 8.02439 6.5421 4.32687
threshold=0.10128801828564857 10.887499751091818 0.33534606156744068 112.02225856919358 112.27817136124763
decision_type=2 2 2 2 2
left_child=2 4 3 -1 -2
right_child=1 -3 -4 -5 -6
leaf_value=-0.021097690343028972 -0.010724559879777107 0.019935699031761317 0.00048260913372201773 -0.0052097250780207107 0.0033574312008344213
leaf_weight=63 55 102 92 64 52
leaf_count=39 27 38 34 32 14
internal_value=0 0.00774247 -0.00738894 -0.0130912 -0.00388098
internal_weight=0 209 219 127 107
internal_count=184 79 105 71 41
is_linear=0
shrinkage=0.035


Tree=55
num_leaves=8
num_cat=0
split_feature=6 11 10 10 17 6 6
split_gain=20.6606 14.572 11.7249 15.7318 4.78896 3.86401 1.26828
threshold=0.077316824457027866 0.11625193219299117 52.500000000000007 46.000000000000007 111.14030870445346 0.037051632190086843 0.067543521084048666
decision_type=2 2 2 2 2 2 2
left_child=1 -1 3 4 -3 -4 -7
right_child=-2 2 5 -5 -6 6 -8
leaf_value=-0.021004646196961404 0.014111132955710804 0.0040152956268122032 -0.017469401488472758 0.020634319678647445 -0.013562339086304694 -0.0078131886872773379 -8.8615656384955291e-05
leaf_weight=53 98 43 38 56 34 60 46
leaf_count=23 34 21 20 20 20 34 12
internal_value=0 -0.00419058 -0.000973447 0.00651925 -0.00374626 -0.00789378 -0.00446102
internal_weight=0 330 277 133 77 144 106
internal_count=184 150 127 61 41 66 46
is_linear=0
shrinkage=0.035


Tree=56
num_leaves=8
num_cat=0
split_feature=6 11 10 10 17 6 6
split_gain=19.2397 13.5698 10.9185 14.6499 4.4596 3.59826 1.18106
threshold=0.077316824457027866 0.11625193219299117 52.500000000000007 46.000000000000007 111.14030870445346 0.037051632190086843 0.067543521084048666
decision_type=2 2 2 2 2 2 2
left_child=1 -1 3 4 -3 -4 -7
right_child=-2 2 5 -5 -6 6 -8
leaf_value=-0.020269483807233146 0.013617242383770645 0.0038747591993143395 -0.016857972421643549 0.019912119257496672 -0.013087657383259607 -0.0075397268470842396 -8.5514110877462073e-05
leaf_weight=53 98 43 38 56 34 60 46
leaf_count=23 34 21 20 20 20 34 12
internal_value=0 -0.00404391 -0.000939376 0.00629107 -0.00361514 -0.0076175 -0.00430488
internal_weight=0 330 277 133 77 144 106
internal_count=184 150 127 61 41 66 46
is_linear=0
shrinkage=0.035


Tree=57
num_leaves=8
num_cat=0
split_feature=0 11 10 6 16 6 0
split_gain=18.7007 53.1246 5.08179 7.44162 6.93268 6.28557 2.98518
threshold=29.326424806201555 0.19578898793497571 65.500000000000014 0.071527752174017786 10.777293443879923 0.056064241040093034 22.319767676767679
decision_type=2 2 2 2 2 2 2
left_child=2 -2 3 4 6 -6 -1
right_child=1 -3 -4 -5 5 -7 -8
leaf_value=-0.0065248572984428124 -0.01429451681080867 0.026950659510822827 0.0056228812349339331 -0.017751727130089424 -0.0060610879790945526 0.010995248348141711 -0.022558795586228374
leaf_weight=33 66 91 42 64 59 48 25
leaf_count=25 22 21 8 36 37 16 19
internal_value=0 0.00961192 -0.00556853 -0.0076211 -0.00369165 0.00159035 -0.013436
internal_weight=0 157 271 229 165 107 58
internal_count=184 43 141 133 97 53 44
is_linear=0
shrinkage=0.035


Tree=58
num_leaves=8
num_cat=0
split_feature=7 9 3 5 17 9 7
split_gain=17.7007 9.44797 22.5999 37.8143 7.66978 8.33832 3.60715
threshold=0.70866220555925274 0.94478752439917901 10.909164701638078 0.10128801828564857 112.27817136124763 1.3044303797468357 0.55509494668603121
decision_type=2 2 2 2 2 2 2
left_child=1 6 4 -4 5 -3 -1
right_child=-2 2 3 -5 -6 -7 -8
leaf_value=-0.0062485282656574714 0.019352062709775627 -0.023594611273782162 -0.00952683693234576 0.035731026918760372 0.0031727414764463903 -0.0048982570290394215 -0.020717865853594284
leaf_weight=46 51 44 42 49 70 87 39
leaf_count=30 13 26 22 19 26 33 15
internal_value=0 -0.00261792 0.000371486 0.0148428 -0.0061802 -0.0111779 -0.0128874
internal_weight=0 377 292 91 201 131 85
internal_count=184 171 126 41 85 59 45
is_linear=0
shrinkage=0.035


Tree=59
num_leaves=8
num_cat=0
split_feature=6 11 10 10 17 5 0
split_gain=17.8336 11.759 9.74909 12.8424 3.97603 3.70111 5.00419
threshold=0.077316824457027866 0.11625193219299117 52.500000000000007 46.000000000000007 111.14030870445346 0.067061713293289013 27.49873517126149
decision_type=2 2 2 2 2 2 2
left_child=1 -1 3 4 -3 -4 -7
right_child=-2 2 5 -5 -6 6 -8
leaf_value=-0.018997521165688081 0.013110205589161655 0.003626068141744581 0.0011454098258929497 0.018582066619710534 -0.012390319488066086 -0.021475106040015818 -0.0051636168209370234
leaf_weight=53 98 43 44 56 34 36 64
leaf_count=23 34 21 18 20 20 30 18
internal_value=0 -0.00389333 -0.00100336 0.00582892 -0.0034461 -0.00731373 -0.0110358
internal_weight=0 330 277 133 77 144 100
internal_count=184 150 127 61 41 66 48
is_linear=0
shrinkage=0.035


Tree=60
num_leaves=7
num_cat=0
split_feature=3 11 11 10 12 1
split_gain=16.7036 32.2098 41.0783 6.16393 5.50071 10.3834
threshold=10.887499751091818 0.1906002359943513 0.29761256704336209 47.500000000000007 0.94212822073442892 13.268787878787881
decision_type=2 2 2 2 2 2
left_child=3 -2 -3 -1 -5 -6
right_child=1 2 -4 4 5 -7
leaf_value=-0.016241865716874599 -0.012962674149541093 0.037031648642185971 -0.0031595995276377116 -0.011938332131549975 -0.0083090118318796171 0.011667187908509126
leaf_weight=56 61 66 59 58 68 60
leaf_count=32 29 20 29 30 28 16
internal_value=0 0.00788682 0.0180614 -0.00606177 -0.0029968 0.00105483
internal_weight=0 186 125 242 186 128
internal_count=184 78 49 106 74 44
is_linear=0
shrinkage=0.035


Tree=61
num_leaves=8
num_cat=0
split_feature=0 11 12 12 10 6 17
split_gain=16.2809 44.8254 7.14063 8.96828 6.29002 3.13499 2.395
threshold=29.326424806201555 0.19578898793497571 1.1156798245614037 1.0150007538067241 57.500000000000007 0.051326675448262776 111.52889644351465
decision_type=2 2 2 2 2 2 2
left_child=2 -2 3 4 6 -4 -1
right_child=1 -3 5 -5 -6 -7 -8
leaf_value=-0.020959749489345335 -0.012991327402943917 0.024895411943658612 -0.007421487957471982 0.0081792081240564599 0.0021390792697668077 -0.021556654869503269 -0.0081483152140982649
leaf_weight=33 66 91 40 72 50 37 39
leaf_count=21 22 21 24 24 22 23 27
internal_value=0 0.0089685 -0.00519577 -0.00161649 -0.00739756 -0.0142137 -0.0140202
internal_weight=0 157 271 194 122 77 72
internal_count=184 43 141 94 70 47 48
is_linear=0
shrinkage=0.035


Tree=62
num_leaves=9
num_cat=0
split_feature=3 0 1 0 13 11 13 11
split_gain=15.4477 21.8373 6.78708 13.5061 5.82714 5.58355 4.57526 3.534
threshold=10.730761521597246 29.326424806201555 5.1170143415906137 20.060833333333335 0.13754515154066058 0.3902563140902004 0.18516605391010579 0.21356847921003211
decision_type=2 2 2 2 2 2 2 2
left_child=5 2 -2 -4 -5 7 -6 -1
right_child=1 -3 3 4 6 -7 -8 -9
leaf_value=-0.0088346503128700748 0.025951692443341019 0.018744633378841545 -0.022453289831409585 0.011699031392733256 -0.01488879525413116 0.00076565796243292957 0.00180560635519214 -0.022431285983572406
leaf_weight=67 9.9999999999999982 93 37 45 30 49 61 36
leaf_count=31 6 25 27 13 18 15 27 22
internal_value=0 0.00493453 -0.00208372 -0.00370426 0.00139658 -0.00896007 -0.00369804 -0.0135869
internal_weight=0 276 183 173 136 152 91 103
internal_count=184 116 91 85 58 68 45 53
is_linear=0
shrinkage=0.035


Tree=63
num_leaves=6
num_cat=0
split_feature=6 10 5 5 8
split_gain=16.574 9.82952 13.6468 8.15771 9.70588
threshold=0.077316824457027866 52.500000000000007 0.10598277353244756 0.067061713293289013 1.5000000000000002
decision_type=2 2 2 2 2
left_child=1 2 -1 -3 -5
right_child=-2 3 -4 4 -6
leaf_value=-0.0082021544267733906 0.012638745560709919 0.0027571096085011963 0.012456215870958505 -0.00098484308331866165 -0.021405596753214431
leaf_weight=75 98 48 82 44 81
leaf_count=39 34 20 32 20 39
internal_value=0 -0.00375332 0.00258757 -0.00950778 -0.0142175
internal_weight=0 330 157 173 125
internal_count=184 150 71 79 59
is_linear=0
shrinkage=0.035


Tree=64
num_leaves=7
num_cat=0
split_feature=0 11 12 8 11 4
split_gain=14.6253 40.6772 6.32208 6.1049 5.73366 4.70815
threshold=29.326424806201555 0.19578898793497571 1.1938296445338701 1.5000000000000002 0.40117192399613627 1.0000000180025095e-35
decision_type=2 2 2 2 2 2
left_child=2 -2 3 -1 5 -5
right_child=1 -3 -4 4 -6 -7
leaf_value=0.0073035858367901238 -0.012418802155562762 0.023672364597352082 -0.015895199536417541 -0.0031934205858354893 0.0014566995964075131 -0.019422499844408102
leaf_weight=59 66 91 52 41 72 47
leaf_count=25 22 21 34 25 26 31
internal_value=0 0.00850028 -0.00492452 -0.00231961 -0.00586816 -0.0118612
internal_weight=0 157 271 219 160 88
internal_count=184 43 141 107 82 56
is_linear=0
shrinkage=0.035


Tree=65
num_leaves=7
num_cat=0
split_feature=3 4 12 10 12 7
split_gain=14.3109 26.2493 26.4064 5.16357 4.74389 4.23817
threshold=10.887499751091818 1.0000000180025095e-35 1.0479471719781801 47.500000000000007 0.94212822073442892 0.46470948592177158
decision_type=2 2 2 2 2 2
left_child=3 -2 -3 -1 -5 -6
right_child=1 2 -4 4 5 -7
leaf_value=-0.014928316367877417 -0.0059903463913613692 0.041399198247165224 0.0039918806753340974 -0.011109254497007051 -0.0058230114930192941 0.0069393848840092484
leaf_weight=56 92 41 53 58 60 68
leaf_count=32 38 19 21 30 24 20
internal_value=0 0.00730013 0.0203078 -0.00561085 -0.00280559 0.000957012
internal_weight=0 186 94 242 186 128
internal_count=184 78 40 106 74 44
is_linear=0
shrinkage=0.035


Tree=66
num_leaves=6
num_cat=0
split_feature=5 4 3 11 17
split_gain=13.5887 21.2647 32.2623 5.30307 5.10794
threshold=0.10128801828564857 1.0000000180025095e-35 10.887499751091818 0.33534606156744068 112.02225856919358
decision_type=2 2 2 2 2
left_child=3 -2 -3 4 -1
right_child=1 2 -4 -5 -6
leaf_value=-0.017802644077584976 -0.0098690543900619258 -0.0017155449772874515 0.03170333584054693 0.00030669985065722599 -0.0037637621186149776
leaf_weight=63 67 75 67 92 64
leaf_count=39 29 27 23 34 32
internal_value=0 0.00638388 0.0140525 -0.00609238 -0.0107279
internal_weight=0 209 142 219 127
internal_count=184 79 50 105 71
is_linear=0
shrinkage=0.035


Tree=67
num_leaves=8
num_cat=0
split_feature=6 1 8 1 0 3 0
split_gain=15.1191 36.8814 7.6781 6.60425 5.41904 6.11732 3.96003
threshold=0.059687729398122148 18.140365448504987 1.5000000000000002 18.140365448504987 21.624873105551071 10.909164701638078 24.75560059870141
decision_type=2 2 2 2 2 2 2
left_child=3 2 -2 4 -1 -6 -4
right_child=1 -3 6 -5 5 -7 -8
leaf_value=-0.013473874000566348 0.00804719565730346 0.029462813984175201 -0.015052103811502458 -0.019523606093418674 -0.0072132853276522489 0.0092524937782078407 -0.0016639783656445602
leaf_weight=49 57 61 50 41 59 52 59
leaf_count=37 17 13 34 11 35 22 15
internal_value=0 0.00619005 -0.00236199 -0.00699076 -0.00377921 0.000500413 -0.00780532
internal_weight=0 227 166 201 160 111 109
internal_count=184 79 66 105 94 57 49
is_linear=0
shrinkage=0.035


Tree=68
num_leaves=6
num_cat=0
split_feature=6 10 5 5 8
split_gain=14.2507 9.10731 11.1441 7.73267 8.52757
threshold=0.077316824457027866 52.500000000000007 0.10598277353244756 0.067061713293289013 1.5000000000000002
decision_type=2 2 2 2 2
left_child=1 2 -1 -3 -5
right_child=-2 3 -4 4 -6
leaf_value=-0.0071270979645351572 0.011719487878893105 0.0029217462232918479 0.011541100857643092 -0.0012013033498078586 -0.020342397081642701
leaf_weight=75 98 48 82 44 81
leaf_count=39 34 20 32 20 39
internal_value=0 -0.00348033 0.00262317 -0.00901935 -0.0136047
internal_weight=0 330 157 173 125
internal_count=184 150 71 79 59
is_linear=0
shrinkage=0.035


Tree=69
num_leaves=8
num_cat=0
split_feature=6 1 8 1 11 0 3
split_gain=13.6539 34.8238 6.64235 5.70052 5.70039 4.85248 5.45012
threshold=0.055012868214367745 18.140365448504987 1.5000000000000002 18.140365448504987 0.40117192399613627 21.624873105551071 10.909164701638078
decision_type=2 2 2 2 2 2 2
left_child=3 2 -2 5 -4 -1 -7
right_child=1 -3 4 -5 -6 6 -8
leaf_value=-0.012978586417933306 0.0073146434652350727 0.028390993246289555 -0.014504537391094646 -0.018553708066891245 0.00088972769285503202 -0.006897621055218307 0.0094280666489984198
leaf_weight=48 59 61 61 41 57 55 46
leaf_count=36 19 13 37 11 19 31 18
internal_value=0 0.00558551 -0.002274 -0.00699659 -0.00706832 -0.00381644 0.000537841
internal_weight=0 238 177 190 118 149 101
internal_count=184 88 75 96 56 85 49
is_linear=0
shrinkage=0.035


Tree=70
num_leaves=7
num_cat=0
split_feature=6 8 13 1 0 1
split_gain=12.8132 7.03154 7.55728 6.57627 5.87049 0.932649
threshold=0.077316824457027866 1.5000000000000002 0.17840564697134453 18.140365448504987 26.316552419354842 8.1872365339578472
decision_type=2 2 2 2 2 2
left_child=1 -1 3 -3 5 -4
right_child=-2 2 4 -5 -6 -7
leaf_value=0.0052383316607862163 0.011112700684794358 -0.0044724509994395903 -0.0087806001454591772 -0.020594998038694509 0.012492952002212407 -0.0014731242297136267
leaf_weight=87 98 63 40 61 33 46
leaf_count=37 34 37 28 15 11 22
internal_value=0 -0.00330014 -0.00635712 -0.0124037 -5.64731e-05 -0.00487195
internal_weight=0 330 243 124 119 86
internal_count=184 150 113 52 61 50
is_linear=0
shrinkage=0.035


Tree=71
num_leaves=8
num_cat=0
split_feature=0 11 12 12 10 6 17
split_gain=12.8529 35.5406 5.43946 7.18105 5.03432 3.13516 2.67428
threshold=29.326424806201555 0.19578898793497571 1.1156798245614037 1.0150007538067241 56.500000000000007 0.066532241297487263 112.03568843458152
decision_type=2 2 2 2 2 2 2
left_child=2 -2 3 4 6 -4 -1
right_child=1 -3 5 -5 -6 -7 -8
leaf_value=-0.02042149638192672 -0.011585126807913185 0.022150384842489778 -0.0069977699571366738 0.0072729420293277764 0.00068129932476302334 -0.021573275309056044 -0.0059829279482364666
leaf_weight=33 66 91 48 72 59 29 30
leaf_count=21 22 21 30 24 27 17 22
internal_value=0 0.00796858 -0.00461648 -0.00149252 -0.00666558 -0.0124872 -0.013546
internal_weight=0 157 271 194 122 77 63
internal_count=184 43 141 94 70 47 43
is_linear=0
shrinkage=0.035


Tree=72
num_leaves=7
num_cat=0
split_feature=3 6 9 12 13 13
split_gain=12.2769 27.6655 6.17048 4.26654 5.0124 3.59606
threshold=10.887499751091818 0.056064241040093034 0.95011837943580102 0.94212822073442892 0.21143865959757849 0.23313164745682832
decision_type=2 2 2 2 2 2
left_child=3 2 -2 5 -5 -1
right_child=1 -3 -4 4 -6 -7
leaf_value=-0.019532940153701182 -0.018461755436252465 0.020853445452920508 0.00017053939178367729 0.0023234868982439402 -0.010206110666765543 -0.0038344222160451346
leaf_weight=39 33 89 64 109 61 33
leaf_count=21 15 35 28 35 31 19
internal_value=0 0.00676147 -0.00616828 -0.00519683 -0.00217243 -0.0123378
internal_weight=0 186 97 242 170 72
internal_count=184 78 43 106 66 40
is_linear=0
shrinkage=0.035


Tree=73
num_leaves=7
num_cat=0
split_feature=6 11 6 6 12 5
split_gain=11.5828 7.56525 4.41282 11.2187 2.62085 1.70592
threshold=0.077316824457027866 0.11625193219299117 0.053175824427590952 0.066532241297487263 1.0038263148993745 0.089647710691634866
decision_type=2 2 2 2 2 2
left_child=1 -1 4 -4 -3 -6
right_child=-2 2 3 -5 5 -7
leaf_value=-0.015252718711447606 0.010565682074853354 -0.011142994273384964 0.015514656396280453 -0.0050848762864867851 -0.007471383629832417 0.002378709124168381
leaf_weight=53 98 54 57 75 35 56
leaf_count=23 34 36 21 29 19 22
internal_value=0 -0.00313769 -0.000819649 0.00381038 -0.00503457 -0.00140979
internal_weight=0 330 277 132 145 91
internal_count=184 150 127 50 77 41
is_linear=0
shrinkage=0.035


Tree=74
num_leaves=8
num_cat=0
split_feature=0 11 12 12 10 6 17
split_gain=12.3565 32.0246 5.10057 6.17886 4.64016 3.23726 1.73307
threshold=29.326424806201555 0.19578898793497571 1.1156798245614037 1.0150007538067241 57.500000000000007 0.051326675448262776 111.52889644351465
decision_type=2 2 2 2 2 2 2
left_child=2 -2 3 4 6 -4 -1
right_child=1 -3 5 -5 -6 -7 -8
leaf_value=-0.01789125878589623 -0.010748120819740562 0.021275259960586063 -0.0052459840820520184 0.0066294475717263088 0.0018910713508725168 -0.019609856348786807 -0.006993098409894186
leaf_weight=33 66 91 40 72 50 37 39
leaf_count=21 22 21 24 24 22 23 27
internal_value=0 0.0078132 -0.00452647 -0.00150138 -0.00629991 -0.0121481 -0.0119881
internal_weight=0 157 271 194 122 77 72
internal_count=184 43 141 94 70 47 48
is_linear=0
shrinkage=0.035


Tree=75
num_leaves=8
num_cat=0
split_feature=0 11 12 12 10 6 20
split_gain=11.5067 29.8221 4.74978 5.75391 4.32103 3.02333 1.61388
threshold=29.326424806201555 0.19578898793497571 1.1156798245614037 1.0150007538067241 57.500000000000007 0.066532241297487263 223.05779288702931
decision_type=2 2 2 2 2 2 2
left_child=2 -2 3 4 6 -4 -1
right_child=1 -3 5 -5 -6 -7 -8
leaf_value=-0.017265064495079446 -0.01037193712127522 0.020530625941285581 -0.0063322390807055247 0.0063974166464888394 0.0018248833946883682 -0.020645428039133551 -0.0067483402960575554
leaf_weight=33 66 91 48 72 50 29 39
leaf_count=21 22 21 30 24 22 17 27
internal_value=0 0.00753974 -0.00436804 -0.00144884 -0.00607941 -0.0117229 -0.0115685
internal_weight=0 157 271 194 122 77 72
internal_count=184 43 141 94 70 47 48
is_linear=0
shrinkage=0.035


Tree=76
num_leaves=7
num_cat=0
split_feature=16 6 10 11 16 9
split_gain=11.2534 24.0505 8.20902 4.98819 5.81188 4.59741
threshold=10.666685937914194 0.077316824457027866 55.500000000000007 0.16256557062912799 10.352000972710441 1.1427999092156034
decision_type=2 2 2 2 2 2
left_child=3 2 5 -1 -5 -2
right_child=1 -3 -4 4 -6 -7
leaf_value=-0.022729730357726415 0.011291932262878014 0.023047555858890217 -0.0095316831776514083 0.0013258551280288136 -0.014782281610709819 -0.0016682690901583747
leaf_weight=24 60 63 91 68 46 76
leaf_count=14 28 23 35 24 26 34
internal_value=0 0.00391497 -0.00139496 -0.0082271 -0.00517392 0.00404947
internal_weight=0 290 227 138 114 136
internal_count=184 120 97 64 50 62
is_linear=0
shrinkage=0.035


Tree=77
num_leaves=8
num_cat=0
split_feature=0 11 11 8 0 11 1
split_gain=10.9274 26.8307 4.67104 9.88894 5.30815 3.28875 1.97996
threshold=29.326424806201555 0.19578898793497571 0.21508957099390338 1.5000000000000002 20.699759090909094 0.41589821905178431 10.556171470805619
decision_type=2 2 2 2 2 2 2
left_child=2 -2 3 -1 -4 -6 -5
right_child=1 -3 4 6 5 -7 -8
leaf_value=0.014947898168934557 -0.009642073732490342 0.019669612623178047 -0.016536399751182713 -0.013070502306024235 -0.0096986886576028945 0.0023625886231532383 -0.00053517327804503774
leaf_weight=41 66 91 57 33 53 58 29
leaf_count=15 22 21 39 23 27 18 19
internal_value=0 0.0073475 -0.00425667 0.00161182 -0.00785461 -0.0033964 -0.0072072
internal_weight=0 157 271 103 168 111 62
internal_count=184 43 141 57 84 45 42
is_linear=0
shrinkage=0.035


Tree=78
num_leaves=6
num_cat=0
split_feature=5 6 10 11 17
split_gain=10.8931 21.4811 17.6262 3.32832 3.54096
threshold=0.10128801828564857 0.077316824457027866 52.500000000000007 0.33534606156744068 112.02225856919358
decision_type=2 2 2 2 2
left_child=3 2 -2 4 -1
right_child=1 -3 -4 -5 -6
leaf_value=-0.015017570216829578 0.0099616294052362088 0.024491694986820221 -0.013792543815134067 -0.00038522202329224222 -0.0033287578287126965
leaf_weight=63 83 55 71 92 64
leaf_count=39 33 15 31 34 32
internal_value=0 0.00571573 -0.00098997 -0.00545474 -0.00912715
internal_weight=0 209 154 219 127
internal_count=184 79 64 105 71
is_linear=0
shrinkage=0.035


Tree=79
num_leaves=7
num_cat=0
split_feature=16 12 10 10 12 1
split_gain=10.4829 20.8689 5.90019 3.52087 2.86994 7.08722
threshold=10.887499751091818 1.0479471719781801 52.500000000000007 47.500000000000007 0.94212822073442892 13.268787878787881
decision_type=2 2 2 2 2 2
left_child=3 -2 -3 -1 -5 -6
right_child=1 2 -4 4 5 -7
leaf_value=-0.012496074561786374 0.020196529484607959 0.0038906941821767113 -0.012451236191950739 -0.00894431806715398 -0.0072952517280902938 0.0092084301887080076
leaf_weight=56 77 59 50 58 68 60
leaf_count=32 33 27 18 30 28 16
internal_value=0 0.00624797 -0.0036056 -0.00480216 -0.00248571 0.000440849
internal_weight=0 186 109 242 186 128
internal_count=184 78 45 106 74 44
is_linear=0
shrinkage=0.035


Tree=80
num_leaves=8
num_cat=0
split_feature=0 6 11 8 0 11 6
split_gain=10.27 26.0488 4.37891 8.62808 4.95721 3.04004 1.47036
threshold=29.326424806201555 0.048874341416590125 0.21508957099390338 1.5000000000000002 20.699759090909094 0.41589821905178431 0.04783612728546812
decision_type=2 2 2 2 2 2 2
left_child=2 -2 3 -1 -4 -6 -5
right_child=1 -3 4 6 5 -7 -8
leaf_value=0.014012288561590562 -0.0085672592035901385 0.020076693442411895 -0.016000145667297933 -0.0019482305403798819 -0.0093612427354069824 0.0022350069100101448 -0.012818971096917436
leaf_weight=41 71 86 57 35 53 58 27
leaf_count=15 23 20 39 23 27 18 19
internal_value=0 0.00712306 -0.00412664 0.00155537 -0.00761026 -0.00330194 -0.00668226
internal_weight=0 157 271 103 168 111 62
internal_count=184 43 141 57 84 45 42
is_linear=0
shrinkage=0.035


Tree=81
num_leaves=7
num_cat=0
split_feature=16 6 10 10 11 11
split_gain=9.92657 21.9508 6.30827 3.20052 3.69793 3.80816
threshold=10.887499751091818 0.056064241040093034 52.500000000000007 47.500000000000007 0.18022610593037386 0.3902563140902004
decision_type=2 2 2 2 2 2
left_child=3 2 -2 -1 -5 -6
right_child=1 -3 -4 4 5 -7
leaf_value=-0.01200853895603359 0.0035808283121635523 0.01863233017201504 -0.01427130935979741 0.0053532573723076094 -0.011031036745181258 0.0008545433070327416
leaf_weight=56 48 89 49 53 72 61
leaf_count=32 22 35 21 23 32 19
internal_value=0 0.00607991 -0.00543726 -0.00467299 -0.00246443 -0.00557976
internal_weight=0 186 97 242 186 133
internal_count=184 78 43 106 74 51
is_linear=0
shrinkage=0.035


Tree=82
num_leaves=8
num_cat=0
split_feature=0 6 11 8 0 11 1
split_gain=9.77746 23.6901 4.05323 7.97564 4.51361 2.65064 1.64374
threshold=29.326424806201555 0.048874341416590125 0.21508957099390338 1.5000000000000002 20.699759090909094 0.41589821905178431 10.556171470805619
decision_type=2 2 2 2 2 2 2
left_child=2 -2 3 -1 -4 -6 -5
right_child=1 -3 4 6 5 -7 -8
leaf_value=0.013416839695830898 -0.0080129735811915199 0.019303418103887075 -0.015383740310606204 -0.011822217499526839 -0.0089249352555511134 0.0019031810288413847 -0.00040068251145040169
leaf_weight=41 71 86 57 33 53 58 29
leaf_count=15 23 20 39 23 27 18 19
internal_value=0 0.00695015 -0.00402647 0.00144017 -0.00737804 -0.003267 -0.00647989
internal_weight=0 157 271 103 168 111 62
internal_count=184 43 141 57 84 45 42
is_linear=0
shrinkage=0.035


Tree=83
num_leaves=7
num_cat=0
split_feature=5 6 10 5 5 0
split_gain=9.2208 18.6889 15.7316 3.36509 5.24645 1.95645
threshold=0.10128801828564857 0.077316824457027866 52.500000000000007 0.065736532049368301 0.079066187940480898 20.699759090909094
decision_type=2 2 2 2 2 2
left_child=3 2 -2 5 -5 -1
right_child=1 -3 -4 4 -6 -7
leaf_value=-0.0085761767299845828 0.0093502807090934149 0.022771903806112034 -0.013090945067684311 -0.019614331668585935 -0.00405277294784107 0.0030253022161406888
leaf_weight=24 83 55 71 38 88 69
leaf_count=16 33 15 31 24 36 29
internal_value=0 0.00525871 -0.000995999 -0.00501859 -0.00874594 3.13722e-05
internal_weight=0 209 154 219 126 93
internal_count=184 79 64 105 60 45
is_linear=0
shrinkage=0.035


Tree=84
num_leaves=7
num_cat=0
split_feature=3 6 10 10 11 11
split_gain=9.29245 19.4204 5.62996 3.08626 3.20079 3.48175
threshold=10.887499751091818 0.056064241040093034 52.500000000000007 47.500000000000007 0.18022610593037386 0.3902563140902004
decision_type=2 2 2 2 2 2
left_child=3 2 -2 -1 -5 -6
right_child=1 -3 -4 4 5 -7
leaf_value=-0.011724694218137302 0.003568947529420257 0.017689286038446963 -0.013296110167035035 0.0049207435999140325 -0.010463271683547647 0.00090151565973875969
leaf_weight=56 48 89 49 53 72 61
leaf_count=32 22 35 21 23 32 19
internal_value=0 0.00588251 -0.00495051 -0.00452127 -0.00235249 -0.00525085
internal_weight=0 186 97 242 186 133
internal_count=184 78 43 106 74 51
is_linear=0
shrinkage=0.035


Tree=85
num_leaves=7
num_cat=0
split_feature=0 11 11 5 0 11
split_gain=9.46009 21.5552 3.72093 4.54046 4.18593 2.26837
threshold=29.326424806201555 0.19578898793497571 0.21508957099390338 0.10128801828564857 20.699759090909094 0.41589821905178431
decision_type=2 2 2 2 2 2
left_child=2 -2 3 -1 -4 -6
right_child=1 -3 4 -5 5 -7
leaf_value=-0.0057228719429285443 -0.008391585537535844 0.017880904415192512 -0.014881449844851569 0.0089915017836860248 -0.008446899716092169 0.0015700371335421145
leaf_weight=54 66 91 57 49 53 58
leaf_count=36 22 21 39 21 27 18
internal_value=0 0.00683642 -0.00396058 0.00127717 -0.00717182 -0.00321282
internal_weight=0 157 271 103 168 111
internal_count=184 43 141 57 84 45
is_linear=0
shrinkage=0.035


Tree=86
num_leaves=8
num_cat=0
split_feature=17 9 16 4 5 9 9
split_gain=8.93645 12.6641 17.7278 29.3811 2.64429 4.11991 1.19331
threshold=108.54790842283778 0.88915672100288912 10.887499751091818 1.0000000180025095e-35 0.067061713293289013 1.0503721920325786 1.4062341220423413
decision_type=2 2 2 2 2 2 2
left_child=-1 -2 4 -4 -3 -6 -7
right_child=1 2 3 -5 5 6 -8
leaf_value=-0.01195157878358777 -0.014408806626285827 0.0063421156350523238 -0.0015049981111378383 0.032048590515830346 0.0023230947884307672 -0.012975094183154094 -0.0045454030680573652
leaf_weight=65 49 36 66 62 66 48 36
leaf_count=29 27 16 24 26 20 22 20
internal_value=0 0.00214009 0.00472256 0.0147475 -0.00217634 -0.00422077 -0.00936237
internal_weight=0 363 314 128 186 150 84
internal_count=184 155 128 50 78 62 42
is_linear=0
shrinkage=0.035


Tree=87
num_leaves=8
num_cat=0
split_feature=0 6 12 1 13 11 4
split_gain=8.50591 20.6439 3.63144 4.24206 4.74633 4.27391 1.79535
threshold=29.326424806201555 0.048874341416590125 1.1938296445338701 5.1170143415906137 0.1310518140423835 0.40117192399613627 1.0000000180025095e-35
decision_type=2 2 2 2 2 2 2
left_child=2 -2 3 -1 -5 6 -6
right_child=1 -3 -4 4 5 -7 -8
leaf_value=0.020488072890788321 -0.0074854985855414844 0.018014186436708393 -0.012070171229111462 0.0066841358398752561 -0.0046702575761203968 0.00080361755227373137 -0.01472408162565394
leaf_weight=9.9999999999999982 71 86 52 49 36 69 55
leaf_count=6 23 20 34 17 26 25 33
internal_value=0 0.00648248 -0.00375553 -0.00178128 -0.0028468 -0.00576565 -0.0107467
internal_weight=0 157 271 219 209 160 91
internal_count=184 43 141 107 101 84 59
is_linear=0
shrinkage=0.035


Tree=88
num_leaves=8
num_cat=0
split_feature=3 6 3 11 3 6 2
split_gain=8.37959 17.2245 5.83419 4.73523 4.96251 4.17313 4.00253
threshold=10.666685937914194 0.077316824457027866 11.119381294601093 0.16256557062912799 10.352000972710441 0.063210523241651689 1.0780055453963702
decision_type=2 2 2 2 2 2 2
left_child=3 2 5 -1 -5 6 -2
right_child=1 -3 -4 4 -6 -7 -8
leaf_value=-0.021229444414687656 0.011116473769435467 0.019569714102480148 -0.012245628798947387 0.001881514299003517 -0.013003110429069594 -0.0061251712355174523 -0.0015009691183896442
leaf_weight=24 67 63 46 68 46 57 57
leaf_count=14 27 23 22 24 26 21 27
internal_value=0 0.0033783 -0.00111535 -0.00709932 -0.00412456 0.00171334 0.00531652
internal_weight=0 290 227 138 114 181 124
internal_count=184 120 97 64 50 75 54
is_linear=0
shrinkage=0.035


Tree=89
num_leaves=7
num_cat=0
split_feature=17 6 10 2 5 8
split_gain=8.22573 12.5213 7.63354 8.52302 6.5167 4.86602
threshold=108.54790842283778 0.077316824457027866 52.500000000000007 1.0780055453963702 0.067061713293289013 1.5000000000000002
decision_type=2 2 2 2 2 2
left_child=-1 2 3 -2 -4 -6
right_child=1 -3 4 -5 5 -7
leaf_value=-0.011466475981932421 0.015506860839668664 0.015592498734374259 0.0048804424515844361 -0.0023425640188462602 -0.0008909160578623415 -0.016042626461932892
leaf_weight=65 56 68 46 79 40 74
leaf_count=29 24 26 18 33 18 36
internal_value=0 0.00205323 -0.00106769 0.00506164 -0.00623932 -0.0107262
internal_weight=0 363 295 135 160 114
internal_count=184 155 129 57 72 54
is_linear=0
shrinkage=0.035


Tree=90
num_leaves=7
num_cat=0
split_feature=1 12 6 2 12 11
split_gain=7.7718 3.96654 3.63508 3.6067 3.11284 4.76197
threshold=17.489130434782613 1.1938296445338701 0.025678893159936215 0.94280767314720471 0.9385486577181209 0.21508957099390338
decision_type=2 2 2 2 2 2
left_child=1 2 -1 -4 -5 -6
right_child=-2 -3 3 4 5 -7
leaf_value=0.010992438183338555 0.0075559958673547959 -0.011756757262024064 -0.014354460015892984 -0.0084162584160838074 0.0079979772839578814 -0.0044787305350076747
leaf_weight=27 120 52 28 51 73 77
leaf_count=15 30 34 16 33 23 33
internal_value=0 -0.00294389 -0.00115378 -0.00258587 -0.000946463 0.00159327
internal_weight=0 308 256 229 201 150
internal_count=184 154 120 105 89 56
is_linear=0
shrinkage=0.035


Tree=91
num_leaves=7
num_cat=0
split_feature=17 6 10 2 5 12
split_gain=7.51735 11.649 7.08692 7.79251 6.1822 3.93071
threshold=108.54790842283778 0.077316824457027866 52.500000000000007 1.0780055453963702 0.067061713293289013 0.97369976359338073
decision_type=2 2 2 2 2 2
left_child=-1 2 3 -2 -4 -6
right_child=1 -3 4 -5 5 -7
leaf_value=-0.010961633682895738 0.014845947732683272 0.015021973714670714 0.0048001760861876869 -0.0022214055283560977 -0.019072714453653959 -0.0055300943771925803
leaf_weight=65 56 68 46 79 41 73
leaf_count=29 24 26 18 33 21 33
internal_value=0 0.00196283 -0.00104742 0.00485839 -0.00603044 -0.0104007
internal_weight=0 363 295 135 160 114
internal_count=184 155 129 57 72 54
is_linear=0
shrinkage=0.035


Tree=92
num_leaves=8
num_cat=0
split_feature=0 11 12 12 10 7 2
split_gain=7.44417 17.7804 3.301 4.46656 2.74045 1.49672 1.25696
threshold=29.326424806201555 0.19578898793497571 1.1156798245614037 1.0150007538067241 55.500000000000007 0.4279603626539345 1.2413218463280964
decision_type=2 2 2 2 2 2 2
left_child=2 -2 3 4 5 -1 -4
right_child=1 -3 6 -5 -6 -7 -8
leaf_value=-0.0056578576167607142 -0.0077660680111412981 0.016095320354574002 -0.013517461676912554 0.0058332874273441526 8.058081561278913e-07 -0.016813334937279042 -0.0044811538606882098
leaf_weight=34 66 91 44 72 62 26 33
leaf_count=24 22 21 26 24 30 16 21
internal_value=0 0.00606442 -0.00351333 -0.00107973 -0.00515954 -0.0104919 -0.00964476
internal_weight=0 157 271 194 122 60 77
internal_count=184 43 141 94 70 40 47
is_linear=0
shrinkage=0.035


Tree=93
num_leaves=7
num_cat=0
split_feature=3 4 12 10 12 1
split_gain=7.19268 16.5887 16.398 2.55897 1.90063 4.22209
threshold=10.887499751091818 1.0000000180025095e-35 1.0479471719781801 47.500000000000007 0.94212822073442892 13.081233178370445
decision_type=2 2 2 2 2 2
left_child=3 -2 -3 -1 -5 -6
right_child=1 2 -4 4 5 -7
leaf_value=-0.010537039153277875 -0.0053900718775010958 0.032136594846662953 0.0026586374067613539 -0.0072588952495676378 -0.005686670834643406 0.007040581370276384
leaf_weight=56 92 41 53 58 67 61
leaf_count=32 38 19 21 30 27 17
internal_value=0 0.00517538 0.015516 -0.00397778 -0.00200294 0.00037866
internal_weight=0 186 94 242 186 128
internal_count=184 78 40 106 74 44
is_linear=0
shrinkage=0.035


Tree=94
num_leaves=7
num_cat=0
split_feature=9 3 5 17 9 5
split_gain=7.16072 11.0021 6.7578 4.62653 10.4598 1.31846
threshold=0.88915672100288912 11.020067243238673 0.11988045685600025 112.03568843458152 1.2203120796341136 0.072249611136010153
decision_type=2 2 2 2 2 2
left_child=-1 2 3 4 -2 -5
right_child=1 -3 -4 5 -6 -7
leaf_value=-0.011321702575532057 -0.022155180387129332 0.014084760454974863 0.0073833949867105004 0.0058318596714880405 -0.00048048353406475555 -0.0022841995621680237
leaf_weight=59 46 72 82 41 67 61
leaf_count=33 24 30 32 17 23 25
internal_value=0 0.00181025 -0.00116539 -0.00442586 -0.00930381 0.000978138
internal_weight=0 369 297 215 113 102
internal_count=184 151 121 89 47 42
is_linear=0
shrinkage=0.035


Tree=95
num_leaves=7
num_cat=0
split_feature=9 7 9 6 5 5
split_gain=6.66824 10.3732 4.14514 4.12912 3.65689 2.98
threshold=0.88915672100288912 0.54580047720023395 0.97486737534494539 0.071527752174017786 0.11540680785566959 0.065736532049368301
decision_type=2 2 2 2 2 2
left_child=-1 2 -2 4 5 -4
right_child=1 -3 3 -5 -6 -7
leaf_value=-0.010925443200236661 0.0092919734790921204 0.011114243840565906 0.0031830434892281823 -0.010445886262365291 0.0099385665168731738 -0.007844994234668853
leaf_weight=59 35 104 52 74 33 71
leaf_count=33 11 30 22 28 21 39
internal_value=0 0.00174689 -0.00192936 -0.00363695 -0.000407075 -0.00318273
internal_weight=0 369 265 230 156 123
internal_count=184 151 121 110 82 61
is_linear=0
shrinkage=0.035


Tree=96
num_leaves=6
num_cat=0
split_feature=17 17 3 13 10
split_gain=6.44014 10.7632 6.04221 11.9346 3.91686
threshold=108.54790842283778 111.14030870445346 10.582845587310805 0.11525474851325491 54.500000000000007
decision_type=2 2 2 2 2
left_child=-1 -2 -3 -4 -5
right_child=1 2 3 4 -6
leaf_value=-0.010145895399726356 0.013828955068610201 -0.009684490396420619 0.016971032353384156 0.0025310082293170341 -0.0082590693776510311
leaf_weight=65 73 76 49 85 80
leaf_count=29 33 38 15 39 30
internal_value=0 0.00181676 -0.001207 0.0018037 -0.00270054
internal_weight=0 363 290 214 165
internal_count=184 155 122 84 69
is_linear=0
shrinkage=0.035


Tree=97
num_leaves=7
num_cat=0
split_feature=0 6 6 12 12 13
split_gain=6.33571 18.1246 3.75116 3.52289 7.65126 2.15484
threshold=29.326424806201555 0.048874341416590125 0.071527752174017786 1.0038263148993745 1.1625690870973895 0.20251743032072914
decision_type=2 2 2 2 2 2
left_child=2 -2 3 5 -5 -1
right_child=1 -3 -4 4 -6 -7
leaf_value=-0.012265280819059735 -0.0074932688359223626 0.016399928631780802 -0.0088917473366761455 0.013373642604509281 -0.0067113644909113646 -0.00079755227414092858
leaf_weight=34 71 86 94 52 42 49
leaf_count=24 23 20 38 22 28 29
internal_value=0 0.00559472 -0.00324122 -0.000240381 0.00439949 -0.00549518
internal_weight=0 157 271 177 94 83
internal_count=184 43 141 103 50 53
is_linear=0
shrinkage=0.035


Tree=98
num_leaves=7
num_cat=0
split_feature=3 1 3 10 0 12
split_gain=6.12961 12.1833 4.41012 4.97042 4.00514 2.83786
threshold=10.666685937914194 17.489130434782613 10.247687782491235 55.500000000000007 20.329216574730761 1.0424160671462832
decision_type=2 2 2 2 2 2
left_child=2 4 -1 -4 -2 -6
right_child=1 -3 3 -5 5 -7
leaf_value=0.001974526890553534 -0.010161366583003352 0.015372221742032304 -0.019549388438463211 -0.0027163294967348607 0.0057043352664244932 -0.003342339404976467
leaf_weight=52 48 72 42 44 87 83
leaf_count=20 34 18 22 22 33 35
internal_value=0 0.00288937 -0.00607187 -0.0109371 -0.00123341 0.00128743
internal_weight=0 290 138 86 218 170
internal_count=184 120 64 44 102 68
is_linear=0
shrinkage=0.035


Tree=99
num_leaves=7
num_cat=0
split_feature=5 3 17 5 12 2
split_gain=5.93967 10.3645 3.71528 3.38401 2.10562 1.01722
threshold=0.098553921919797671 10.909164701638078 112.27817136124763 0.065736532049368301 1.0749299719887957 0.98663420054951378
decision_type=2 2 2 2 2 2
left_child=3 2 -2 5 -5 -1
right_child=1 -3 -4 4 -6 -7
leaf_value=-0.0049567626811692434 -0.0064606361552210093 0.013819052315794115 0.0048598704074860602 -0.013791597612275214 -0.0039612116431817414 0.0029450800947552129
leaf_weight=29 85 82 61 51 56 64
leaf_count=17 35 30 17 29 28 28
internal_value=0 0.00386167 -0.00173084 -0.0044023 -0.00864672 0.000481065
internal_weight=0 228 146 200 107 93
internal_count=184 82 52 102 57 45
is_linear=0
shrinkage=0.035


Tree=100
num_leaves=6
num_cat=0
split_feature=6 13 11 11 10
split_gain=6.09382 7.29762 6.99794 5.40129 0.541866
threshold=0.077316824457027866 0.17840564697134453 0.20814405189227622 0.23877966830358457 56.500000000000007
decision_type=2 2 2 2 2
left_child=1 2 -1 -3 -5
right_child=-2 3 -4 4 -6
leaf_value=-0.014691266114421099 0.0076636398211121564 0.009855551065728916 -0.00072238648026541348 -0.0059560289746150383 -1.2329688624424093e-05
leaf_weight=81 98 77 96 42 34
leaf_count=37 34 39 34 24 16
internal_value=0 -0.00227587 -0.00711492 0.00332225 -0.00329701
internal_weight=0 330 177 153 76
internal_count=184 150 71 79 40
is_linear=0
shrinkage=0.035


Tree=101
num_leaves=7
num_cat=0
split_feature=11 1 6 10 12 6
split_gain=5.77104 16.5561 3.73645 4.28507 2.23091 2.52697
threshold=0.11625193219299117 17.489130434782613 0.071527752174017786 60.500000000000007 1.1423147420790787 0.0463572940774283
decision_type=2 2 2 2 2 2
left_child=-1 2 3 4 5 -2
right_child=1 -3 -4 -5 -6 -7
leaf_value=-0.0086772365664893932 -0.00084739556442946196 0.013862768476921144 -0.0096557418024167431 -0.010991865050616778 -0.0054453297275485419 0.0098473535963902424
leaf_weight=77 50 101 72 36 33 59
leaf_count=29 32 23 32 22 23 23
internal_value=0 0.00190355 -0.00292797 -0.000206623 0.00252766 0.00494151
internal_weight=0 351 250 178 142 109
internal_count=184 155 132 100 78 55
is_linear=0
shrinkage=0.035


Tree=102
num_leaves=7
num_cat=0
split_feature=6 13 12 1 9 3
split_gain=5.85972 6.82898 6.21443 5.05783 4.07735 1.82402
threshold=0.077316824457027866 0.17840564697134453 0.90744400527009239 18.140365448504987 1.1427999092156034 10.829525086341315
decision_type=2 2 2 2 2 2
left_child=1 2 -1 -4 -3 -6
right_child=-2 4 3 -5 5 -7
leaf_value=-0.019669722948928138 0.0075149893973554894 0.010598639544066892 0.0016509945154184714 -0.012064660129682074 0.0040257536644243046 -0.0056568144225793036
leaf_weight=37 98 57 87 53 44 52
leaf_count=19 34 33 39 13 24 22
internal_value=0 -0.00223172 -0.00691283 -0.00354136 0.00318367 -0.00121897
internal_weight=0 330 177 140 153 96
internal_count=184 150 71 52 79 46
is_linear=0
shrinkage=0.035


Tree=103
num_leaves=7
num_cat=0
split_feature=0 6 6 12 12 5
split_gain=5.64916 16.4841 3.71538 3.31954 6.74766 1.44956
threshold=29.326424806201555 0.048874341416590125 0.071527752174017786 1.0038263148993745 1.1625690870973895 0.068755554709285585
decision_type=2 2 2 2 2 2
left_child=2 -2 3 5 -5 -1
right_child=1 -3 -4 4 -6 -7
leaf_value=-0.00049351191795544654 -0.0071987004410213155 0.015587488731672598 -0.0086840880212146164 0.012857488730268627 -0.0060042770082751919 -0.0097449498421822989
leaf_weight=41 71 86 94 52 42 42
leaf_count=21 23 20 38 22 28 32
internal_value=0 0.00528291 -0.00306058 -7.40797e-05 0.00442989 -0.00517496
internal_weight=0 157 271 177 94 83
internal_count=184 43 141 103 50 53
is_linear=0
shrinkage=0.035


Tree=104
num_leaves=6
num_cat=0
split_feature=6 13 11 2 5
split_gain=5.66827 6.48443 5.97884 5.2754 4.17666
threshold=0.077316824457027866 0.17840564697134453 0.20814405189227622 1.085957454233003 0.10203141995513117
decision_type=2 2 2 2 2
left_child=1 2 -1 -3 -5
right_child=-2 3 -4 4 -6
leaf_value=-0.013759429504474006 0.0073912076652050025 0.010348210891380031 -0.00084768503836433725 0.002852253250894137 -0.01351211618054016
leaf_weight=81 98 68 96 56 29
leaf_count=37 34 32 34 26 21
internal_value=0 -0.00219496 -0.00675645 0.00308205 -0.00273088
internal_weight=0 330 177 153 85
internal_count=184 150 71 79 47
is_linear=0
shrinkage=0.035


Tree=105
num_leaves=7
num_cat=0
split_feature=3 12 10 13 10 13
split_gain=5.54955 14.1449 2.93373 2.35947 3.3105 3.42416
threshold=10.887499751091818 1.0479471719781801 52.500000000000007 0.11301654938976566 47.500000000000007 0.22608530845626834
decision_type=2 2 2 2 2 2
left_child=3 -2 -3 -1 -5 -6
right_child=1 2 -4 4 5 -7
leaf_value=-0.010533409733721553 0.016029600450261073 0.001719637853645925 -0.0098037615825422118 -0.010501321715613207 0.0049727482154137562 -0.0056662115371889539
leaf_weight=47 77 59 50 42 90 63
leaf_count=15 33 27 18 28 32 31
internal_value=0 0.00454597 -0.00356633 -0.00349401 -0.00179733 0.000592
internal_weight=0 186 109 242 195 153
internal_count=184 78 45 106 91 63
is_linear=0
shrinkage=0.035


Tree=106
num_leaves=7
num_cat=0
split_feature=0 6 6 8 5 5
split_gain=5.51746 14.8666 3.58387 2.4444 1.93517 1.76672
threshold=29.326424806201555 0.048874341416590125 0.071527752174017786 2.5000000000000004 0.11988045685600025 0.065736532049368301
decision_type=2 2 2 2 2 2
left_child=2 -2 3 4 5 -1
right_child=1 -3 -4 -5 -6 -7
leaf_value=0.0045243125830408352 -0.0066324539818394361 0.015006918502365088 -0.0085477800037157044 -0.0079580526681322806 0.009044389604823665 -0.0046646985078061176
leaf_weight=48 71 86 94 38 36 55
leaf_count=22 23 20 38 26 20 35
internal_value=0 0.00522096 -0.00302469 -9.1522e-05 0.00205904 -0.000382441
internal_weight=0 157 271 177 139 103
internal_count=184 43 141 103 77 57
is_linear=0
shrinkage=0.035


Tree=107
num_leaves=8
num_cat=0
split_feature=3 1 11 3 0 2 2
split_gain=5.26642 10.6814 3.99733 4.46589 3.66904 1.64448 1.45008
threshold=10.666685937914194 17.489130434782613 0.16256557062912799 10.352000972710441 20.329216574730761 1.1167739927049465 1.000267143186427
decision_type=2 2 2 2 2 2 2
left_child=2 4 -1 -4 -2 6 -6
right_child=1 -3 3 -5 5 -7 -8
leaf_value=-0.018610684894568599 -0.0097272528529477632 0.014366352578832045 0.0028026764379704703 -0.011317526637374059 0.0029821036455149833 0.0059523070036922978 -0.0050346454954311509
leaf_weight=24 48 72 68 46 52 59 59
leaf_count=14 34 18 24 26 20 23 25
internal_value=0 0.00267821 -0.00562812 -0.00289495 -0.0011821 0.00123066 -0.00127905
internal_weight=0 290 138 114 218 170 111
internal_count=184 120 64 50 102 68 45
is_linear=0
shrinkage=0.035


Tree=108
num_leaves=7
num_cat=0
split_feature=6 13 12 2 5 6
split_gain=5.38879 6.35784 5.51912 4.53915 4.00522 3.47491
threshold=0.077316824457027866 0.17840564697134453 0.90744400527009239 1.085957454233003 0.10203141995513117 0.040375856485675189
decision_type=2 2 2 2 2 2
left_child=1 2 -1 -3 -5 -4
right_child=-2 3 5 4 -6 -7
leaf_value=-0.01867898389294341 0.007206688454108579 0.0098251564481624358 0.0044028001003291297 0.0031603706514579245 -0.012864624476381417 -0.0073370118787700438
leaf_weight=37 98 68 46 56 29 94
leaf_count=19 34 32 20 26 21 32
internal_value=0 -0.00214017 -0.00665691 0.00308508 -0.00230698 -0.00347965
internal_weight=0 330 177 153 85 140
internal_count=184 150 71 79 47 52
is_linear=0
shrinkage=0.035


Tree=109
num_leaves=7
num_cat=0
split_feature=9 17 6 13 9 11
split_gain=5.35831 8.53868 13.5212 6.49484 7.55376 7.24776
threshold=0.88915672100288912 108.54790842283778 0.077316824457027866 0.17840564697134453 1.2571649747532507 0.20814405189227622
decision_type=2 2 2 2 2 2
left_child=-1 -2 3 5 -5 -3
right_child=1 2 -4 4 -6 -7
leaf_value=-0.0097937129643130109 -0.011155434950508856 -0.016114404293054597 0.019052848576985557 0.016759503147165691 -0.00086430727528702281 0.0010495403750489156
leaf_weight=59 55 47 58 49 76 84
leaf_count=33 23 25 18 23 34 28
internal_value=0 0.00156593 0.0037942 0.000337159 0.00604423 -0.00510852
internal_weight=0 369 314 256 125 131
internal_count=184 151 128 110 57 53
is_linear=0
shrinkage=0.035


Tree=110
num_leaves=7
num_cat=0
split_feature=9 16 5 9 9 10
split_gain=4.98979 8.19456 16.426 6.3311 3.63299 1.71365
threshold=0.88915672100288912 10.909164701638078 0.10128801828564857 0.97486737534494539 1.2120468530713595 58.500000000000007
decision_type=2 2 2 2 2 2
left_child=-1 3 -3 -2 -5 -6
right_child=1 2 -4 4 5 -7
leaf_value=-0.0094509328039899723 0.0097608633600967994 -0.0072662979001612516 0.020533482224652264 -0.0098269556185460825 0.0029959026236139556 -0.0053212184086442
leaf_weight=59 47 43 66 89 71 53
leaf_count=33 15 23 24 37 35 17
internal_value=0 0.00151112 0.0095666 -0.00186598 -0.00443152 -0.000558996
internal_weight=0 369 109 260 213 124
internal_count=184 151 47 104 89 52
is_linear=0
shrinkage=0.035


Tree=111
num_leaves=7
num_cat=0
split_feature=0 6 6 20 3 5
split_gain=5.09025 13.6399 3.73584 2.32828 3.5603 2.04611
threshold=29.326424806201555 0.048874341416590125 0.071527752174017786 225.1684523809524 10.909164701638078 0.091298341501874825
decision_type=2 2 2 2 2 2
left_child=2 -2 3 4 5 -1
right_child=1 -3 -4 -5 -6 -7
leaf_value=0.0032114100200124089 -0.0063390816926536435 0.014388292274156285 -0.0085442132177822143 -0.0069967859039126445 0.010386632299257651 -0.007435284172888937
leaf_weight=48 71 86 94 43 45 41
leaf_count=24 23 20 38 31 21 27
internal_value=0 0.00501477 -0.00290523 8.94785e-05 0.00236343 -0.00169325
internal_weight=0 157 271 177 134 89
internal_count=184 43 141 103 72 51
is_linear=0
shrinkage=0.035


Tree=112
num_leaves=8
num_cat=0
split_feature=0 11 11 8 11 12 1
split_gain=4.74017 12.3758 3.04159 4.17186 3.35018 1.56106 1.07739
threshold=29.326424806201555 0.19578898793497571 0.21508957099390338 1.5000000000000002 0.42429585912114559 1.0479471719781801 10.556171470805619
decision_type=2 2 2 2 2 2 2
left_child=2 -2 3 -1 5 -4 -5
right_child=1 -3 4 6 -6 -7 -8
leaf_value=0.010593992412663861 -0.0066993677130702776 0.013207917265020885 -0.006260568566088167 -0.0081212550099713336 -0.00052313900820445268 -0.015644573672459677 0.0011256166682418051
leaf_weight=41 66 91 49 33 80 39 29
leaf_count=15 22 21 27 23 34 23 19
internal_value=0 0.00483925 -0.00280355 0.00193199 -0.00570689 -0.0104194 -0.00379611
internal_weight=0 157 271 103 168 88 62
internal_count=184 43 141 57 84 50 42
is_linear=0
shrinkage=0.035


Tree=113
num_leaves=8
num_cat=0
split_feature=11 1 8 0 0 0 10
split_gain=4.58006 13.2876 2.18862 5.12186 4.70299 2.68286 2.52346
threshold=0.11625193219299117 17.489130434782613 2.5000000000000004 15.111594871794873 17.654432967631504 20.699759090909094 52.500000000000007
decision_type=2 2 2 2 2 2 2
left_child=-1 2 3 -2 -5 -6 -7
right_child=1 -3 -4 4 5 6 -8
leaf_value=-0.0077301895855502656 -0.020936368406129384 0.012409698267531868 -0.010249761031606261 0.013847859221752044 -0.01137547214422375 0.0058217363373229379 -0.0037662894182793074
leaf_weight=77 14.999999999999998 101 39 27 30 57 82
leaf_count=29 13 23 27 13 22 21 36
internal_value=0 0.0016958 -0.00263262 -0.00122471 0.000283833 -0.0018832 0.000165491
internal_weight=0 351 250 211 196 169 139
internal_count=184 155 132 105 92 79 57
is_linear=0
shrinkage=0.035


Tree=114
num_leaves=7
num_cat=0
split_feature=6 13 12 1 11 9
split_gain=4.88014 5.97814 5.20704 4.87351 4.1598 4.05234
threshold=0.077316824457027866 0.17840564697134453 0.90744400527009239 18.140365448504987 0.24720590225183917 1.3044303797468357
decision_type=2 2 2 2 2 2
left_child=1 2 -1 -4 5 -3
right_child=-2 4 3 -5 -6 -7
leaf_value=-0.018093684978179033 0.0068581378087401394 0.014986051784944722 0.0017665426163323997 -0.011696873654453261 -0.0029327223313708062 -0.0012482273182080638
leaf_weight=37 98 48 87 53 74 31
leaf_count=19 34 26 39 13 38 15
internal_value=0 -0.00203666 -0.00641645 -0.00333032 0.00303016 0.00861564
internal_weight=0 330 177 140 153 79
internal_count=184 150 71 52 79 41
is_linear=0
shrinkage=0.035


Tree=115
num_leaves=7
num_cat=0
split_feature=6 13 1 11 9 20
split_gain=4.54451 5.567 4.82414 3.87371 3.77364 1.58793
threshold=0.077316824457027866 0.17840564697134453 18.140365448504987 0.24720590225183917 1.3044303797468357 224.24809237625769
decision_type=2 2 2 2 2 2
left_child=1 2 5 4 -3 -1
right_child=-2 3 -4 -5 -6 -7
leaf_value=0.0019693892964949976 0.0066181028793965077 0.014461540233708853 -0.013169696670439511 -0.0028300769544187688 -0.0012045395820431653 -0.0068938430671114485
leaf_weight=65 98 48 72 74 31 40
leaf_count=35 34 26 18 38 15 18
internal_value=0 -0.00196538 -0.00619187 0.0029241 0.00831409 -0.00140708
internal_weight=0 330 177 153 79 105
internal_count=184 150 71 79 41 53
is_linear=0
shrinkage=0.035


Tree=116
num_leaves=8
num_cat=0
split_feature=6 6 13 12 2 1 3
split_gain=4.68095 17.4108 5.59624 4.76592 4.34587 3.95512 2.50266
threshold=0.093063900202196112 0.075798199093596239 0.17840564697134453 0.97369976359338073 1.085957454233003 16.604499579478556 10.829525086341315
decision_type=2 2 2 2 2 2 2
left_child=1 2 3 -1 -4 -5 -6
right_child=-2 -3 4 5 6 -7 -8
leaf_value=-0.014678621541846683 -0.00943389065563679 0.019598516196012498 0.0099992497514646804 0.004937875062438115 0.0031779311474019779 -0.0081327863291028105 -0.009029841932157676
leaf_weight=54 56 55 65 53 48 61 36
leaf_count=26 22 15 31 25 26 19 20
internal_value=0 0.00142016 -0.00173382 -0.00611332 0.00320415 -0.00205608 -0.00205397
internal_weight=0 372 317 168 149 114 84
internal_count=184 162 147 70 77 44 46
is_linear=0
shrinkage=0.035


Tree=117
num_leaves=7
num_cat=0
split_feature=0 6 6 12 12 13
split_gain=4.67566 11.6393 3.62352 2.89412 5.38456 1.3332
threshold=29.326424806201555 0.048874341416590125 0.071527752174017786 1.0038263148993745 1.1625690870973895 0.25155757458458433
decision_type=2 2 2 2 2 2
left_child=2 -2 3 5 -5 -1
right_child=1 -3 -4 4 -6 -7
leaf_value=-0.0087740981053899634 -0.0056819934901637089 0.013465068433217186 -0.0083379630411558967 0.011898804906030331 -0.0049504571161135876 0.00011374053187095203
leaf_weight=44 71 86 94 52 42 39
leaf_count=30 23 20 38 22 28 23
internal_value=0 0.00480621 -0.00278441 0.000164939 0.00437041 -0.00459788
internal_weight=0 157 271 177 94 83
internal_count=184 43 141 103 50 53
is_linear=0
shrinkage=0.035


Tree=118
num_leaves=8
num_cat=0
split_feature=11 11 13 1 12 10 11
split_gain=4.57848 24.3919 5.77042 5.9419 5.86313 2.50892 2.25519
threshold=0.27305019941009684 0.32322679962823359 0.17840564697134453 18.140365448504987 1.0897829647829649 48.500000000000007 0.15325471133134824
decision_type=2 2 2 2 2 2 2
left_child=2 -2 3 6 -4 -3 -1
right_child=1 5 4 -5 -6 -7 -8
leaf_value=0.0029591486092656852 0.02690014418383891 -0.010763117073986092 0.010552511931223385 -0.016982327328593123 -0.0073707644905920871 -0.00012208112790004205 -0.0073112648048184138
leaf_weight=50 44 38 59 51 36 95 55
leaf_count=20 18 22 29 13 20 37 25
internal_value=0 0.00431079 -0.00303988 -0.00718116 0.00376053 -0.00316238 -0.00242059
internal_weight=0 177 251 156 95 133 105
internal_count=184 77 107 58 49 59 45
is_linear=0
shrinkage=0.035


Tree=119
num_leaves=6
num_cat=0
split_feature=1 6 10 7 12
split_gain=4.46747 3.64249 3.70563 1.61369 3.22452
threshold=17.489130434782613 0.071527752174017786 60.500000000000007 0.4279603626539345 1.0749299719887957
decision_type=2 2 2 2 2
left_child=1 2 3 4 -1
right_child=-2 -3 -4 -5 -6
leaf_value=0.0096629443597048524 0.0057287739353875326 -0.0078881809053321685 -0.0091208129293262608 -0.0020893716779774277 -0.0026039839838631453
leaf_weight=70 120 96 41 59 42
leaf_count=36 30 38 25 33 22
internal_value=0 -0.00223199 0.000329304 0.00259512 0.00506285
internal_weight=0 308 212 171 112
internal_count=184 154 116 91 58
is_linear=0
shrinkage=0.035


Tree=120
num_leaves=7
num_cat=0
split_feature=0 11 6 12 12 13
split_gain=4.31625 11.0635 3.16347 2.86813 4.84216 1.17674
threshold=29.326424806201555 0.19578898793497571 0.071527752174017786 1.0038263148993745 1.1156798245614037 0.25155757458458433
decision_type=2 2 2 2 2 2
left_child=2 -2 3 5 -5 -1
right_child=1 -3 -4 4 -6 -7
leaf_value=-0.0085843872998587114 -0.0062919217161834249 0.012530325456307485 -0.0078642973280016425 0.013496821966487915 -0.0025697982625570151 -0.00023434691310215457
leaf_weight=44 66 91 94 40 54 39
leaf_count=30 22 21 38 14 36 23
internal_value=0 0.00461779 -0.00267525 8.05153e-05 0.00426706 -0.00466087
internal_weight=0 157 271 177 94 83
internal_count=184 43 141 103 50 53
is_linear=0
shrinkage=0.035


Tree=121
num_leaves=7
num_cat=0
split_feature=11 11 8 13 1 10
split_gain=4.20831 22.2104 6.11279 7.20216 4.4007 2.4676
threshold=0.27305019941009684 0.32322679962823359 1.5000000000000002 0.17840564697134453 16.214961776483438 48.500000000000007
decision_type=2 2 2 2 2 2
left_child=2 -2 -1 4 -4 -3
right_child=1 5 3 -5 -6 -7
leaf_value=0.0050711318359826689 0.025688422818202529 -0.010536191780139283 -0.0045856101761261626 0.0018742343712545618 -0.019344081491570582 1.6847342448799233e-05
leaf_weight=80 44 38 45 71 55 95
leaf_count=26 18 22 27 37 17 37
internal_value=0 0.00413286 -0.00291441 -0.00665033 -0.0127028 -0.00299831
internal_weight=0 177 251 171 100 133
internal_count=184 77 107 81 44 59
is_linear=0
shrinkage=0.035


Tree=122
num_leaves=7
num_cat=0
split_feature=0 6 6 17 3 9
split_gain=4.20462 10.3533 2.97655 1.85109 2.91988 1.41229
threshold=29.326424806201555 0.048874341416590125 0.071527752174017786 112.5842261904762 10.909164701638078 1.2786012569254941
decision_type=2 2 2 2 2 2
left_child=2 -2 3 4 5 -1
right_child=1 -3 -4 -5 -6 -7
leaf_value=-0.0067212177343725157 -0.0053341527230722809 0.012724203935033795 -0.0076738424813176725 -0.0062858141068542423 0.0093261136462291089 0.0021922681559169411
leaf_weight=38 71 86 94 43 45 51
leaf_count=26 23 20 38 31 21 25
internal_value=0 0.00455769 -0.00264043 3.26808e-05 0.00206026 -0.00161349
internal_weight=0 157 271 177 134 89
internal_count=184 43 141 103 72 51
is_linear=0
shrinkage=0.035


Tree=123
num_leaves=7
num_cat=0
split_feature=3 4 12 9 17 0
split_gain=4.0833 11.9912 12.0063 2.45858 2.9372 0.311126
threshold=10.887499751091818 1.0000000180025095e-35 1.0479471719781801 1.2120468530713595 112.03568843458152 22.830003654970763
decision_type=2 2 2 2 2 2
left_child=3 -2 -3 4 -1 -5
right_child=1 2 -4 5 -6 -7
leaf_value=-0.012176977775566152 -0.0050833612700681334 0.026912961284198414 0.0016893383424799399 0.0032679810539581059 -0.0017245576913970024 -0.00058151740355242513
leaf_weight=57 92 41 53 43 78 64
leaf_count=31 38 19 21 27 30 18
internal_value=0 0.00389945 0.0126911 -0.0029971 -0.0061378 0.000965477
internal_weight=0 186 94 242 135 107
internal_count=184 78 40 106 61 45
is_linear=0
shrinkage=0.035


Tree=124
num_leaves=7
num_cat=0
split_feature=6 13 12 11 11 2
split_gain=4.25786 4.62082 4.4184 3.18683 3.12843 2.74267
threshold=0.077316824457027866 0.17840564697134453 0.90744400527009239 0.24720590225183917 0.20814405189227622 1.0904263402498919
decision_type=2 2 2 2 2 2
left_child=1 2 -1 5 -4 -3
right_child=-2 3 4 -5 -6 -7
leaf_value=-0.016509637637315572 0.0064059802889823922 0.012964630100784986 -0.0087785496573234301 -0.0026669001596904287 0.0017544510229550397 -0.00025845217546730334
leaf_weight=37 98 46 62 74 78 33
leaf_count=19 34 22 26 38 26 19
internal_value=0 -0.00190238 -0.00575299 0.00255224 -0.00291016 0.00744106
internal_weight=0 330 177 153 140 79
internal_count=184 150 71 79 52 41
is_linear=0
shrinkage=0.035


Tree=125
num_leaves=7
num_cat=0
split_feature=0 3 6 12 12 13
split_gain=3.99964 9.93052 2.8878 2.69291 4.40716 1.03559
threshold=29.326424806201555 10.887499751091818 0.071527752174017786 1.0038263148993745 1.1156798245614037 0.25155757458458433
decision_type=2 2 2 2 2 2
left_child=2 -2 3 5 -5 -1
right_child=1 -3 -4 4 -6 -7
leaf_value=-0.0082172686888159017 -0.0038663294331271608 0.013767597822321429 -0.0075330754995663121 0.012919769850384911 -0.0024081926087469417 -0.00038400748935647506
leaf_weight=44 83 74 94 40 54 39
leaf_count=30 25 18 38 14 36 23
internal_value=0 0.0044452 -0.00257527 5.76965e-05 0.00411434 -0.00453658
internal_weight=0 157 271 177 94 83
internal_count=184 43 141 103 50 53
is_linear=0
shrinkage=0.035


Tree=126
num_leaves=7
num_cat=0
split_feature=6 3 6 6 6 5
split_gain=4.1523 3.98025 3.87905 3.97883 2.53175 1.61569
threshold=0.077316824457027866 11.119381294601093 0.068227711842335628 0.059687729398122148 0.038163207223512512 0.090788418152652525
decision_type=2 2 2 2 2 2
left_child=1 2 3 4 5 -1
right_child=-2 -3 -4 -5 -6 -7
leaf_value=-0.0027384975760402844 0.0063260795761431975 -0.011429600351409096 -0.0079928833453191666 0.01001101782240651 -0.0062389015796092849 0.0062759754817622408
leaf_weight=41 98 46 63 55 65 60
leaf_count=21 34 22 21 19 39 28
internal_value=0 -0.00187865 -0.00033167 0.0018523 -0.000850894 0.00261663
